%YAML:1.0
cvHOGClassifier: !!opencv-object-detector-hog
   winSize: [ 96, 160 ]
   blockSize: [ 16, 16 ]
   blockStride: [ 8, 8 ]
   cellSize: [ 8, 8 ]
   nbins: 9
   derivAperture: 1
   winSigma: 4.
   histogramNormType: 0
   L2HysThreshold: 2.0000000000000001e-01
   gammaCorrection: 1
   nlevels: 64
   SVMDetector: [ 7.52885221e-03, 2.41867360e-02, 1.24442559e-02,
       5.85450791e-03, 4.02924325e-03, 1.26721514e-02, -8.66509881e-03,
       3.14973528e-03, 8.98166280e-03, 1.94201770e-03, 1.25886081e-02,
       1.71046425e-03, -3.98656307e-03, -1.27684548e-02, 1.33615239e-02,
       -1.33389235e-02, -5.22920163e-03, -4.27371328e-04, 6.26015710e-03,
       3.45701142e-03, -3.37719731e-03, -1.08996581e-03, -6.89102942e-03,
       1.14752455e-02, -6.83233747e-03, 1.10722631e-02, 2.79261377e-02,
       4.16419469e-03, 3.23301693e-03, -1.29737947e-02, -1.01017747e-02,
       -2.08074506e-02, 2.19317600e-02, -9.90866218e-03, 6.15135347e-03,
       1.83319449e-02, 1.79901905e-02, 2.81752110e-03, 9.74369422e-03,
       5.72330225e-03, 6.38562534e-03, 1.59126110e-02, -1.44184171e-03,
       1.90619868e-03, 1.16532249e-02, 8.47160351e-03, -2.76061450e-03,
       2.90044933e-03, 3.54192685e-03, -5.42590581e-03, -9.20588803e-03,
       -1.42261451e-02, -3.12495540e-04, 1.36818951e-02, 8.08914751e-03,
       5.20961871e-03, -3.21331038e-03, 6.55370485e-03, 6.30629761e-03,
       1.86031032e-02, 5.39375935e-03, 9.64788254e-03, 1.87985450e-02,
       5.63775096e-03, 1.06006991e-02, -5.19190542e-03, -2.68715376e-04,
       -1.93559192e-03, 2.77928216e-03, 2.64960178e-03, 1.65567771e-02,
       9.60800797e-03, 1.67111546e-04, 4.63162409e-03, 1.89482758e-03,
       5.14271297e-03, 2.54587177e-03, 3.74614378e-03, 3.75164277e-03,
       -2.51802127e-03, -1.31803949e-03, 1.12052839e-02, -2.66176392e-03,
       5.98467980e-03, 5.42450696e-03, -8.57100356e-03, 4.52165864e-03,
       -8.52258503e-03, -9.87081043e-03, 3.69684771e-03, 4.35043080e-03,
       1.28573896e-02, -2.58085923e-03, 1.36041688e-03, 4.14313842e-03,
       7.91322161e-03, 6.41306257e-03, 1.04146544e-02, 3.83390510e-03,
       7.63342064e-03, 6.82049058e-03, 5.87072270e-03, 6.11350220e-03,
       -1.55204022e-02, 7.96009973e-03, -9.73619614e-03, 1.18749915e-03,
       5.38974255e-03, 1.29211769e-02, -2.24656332e-03, 3.92549764e-03,
       -1.33812090e-03, -1.65300593e-02, 7.05435115e-04, -1.33993505e-02,
       -1.20967906e-02, 2.39688612e-04, 7.22073624e-03, 4.25112993e-03,
       1.87422277e-03, 7.72313355e-03, 2.81163491e-03, 1.27375545e-02,
       1.64694805e-03, 4.42525977e-03, 3.22246202e-03, 5.06741321e-03,
       3.98764061e-03, -3.60835530e-03, -1.00455526e-02, -2.26871502e-02,
       6.71390397e-03, -1.40284775e-02, -1.33070431e-03, 1.59818865e-02,
       -7.50799989e-03, 5.34158153e-03, -2.24400349e-02, -3.40962812e-04,
       -1.18069351e-02, 1.54536273e-02, -6.00732910e-03, 4.44822758e-03,
       -3.12093459e-03, 3.21600499e-04, -2.11558261e-04, -3.96764651e-03,
       8.75401497e-03, 3.84019664e-03, 8.53849575e-03, -1.25189442e-02,
       -5.79424435e-03, -1.24477185e-04, -2.83352169e-03,
       -1.08208787e-02, -4.70003393e-03, 1.15797706e-02, -6.95994915e-03,
       1.02072693e-02, -1.29340254e-02, -9.72392317e-03, 3.73500283e-03,
       -8.11029412e-03, 6.34582434e-03, -1.48324650e-02, -5.74805448e-03,
       -4.28143190e-03, 1.35457329e-02, -3.98365129e-03, -2.05532298e-04,
       -1.21573813e-03, -2.50094868e-02, -1.98317487e-02,
       -3.87563650e-03, 5.79649769e-03, -1.43127376e-02, 2.69317795e-02,
       2.88336747e-03, 1.59227138e-03, 2.63954559e-03, -7.50730280e-04,
       -1.46600734e-02, -2.82518752e-03, 2.84505892e-03, 3.49101640e-04,
       1.18364161e-02, -1.12369293e-02, 6.88640168e-04, 1.19025698e-02,
       -4.70617833e-03, -7.83108082e-03, -3.32028186e-03, 4.92917839e-03,
       4.82016010e-03, 1.02646342e-02, -6.84580998e-03, 4.75645764e-03,
       3.68234259e-03, -2.65942365e-02, -2.34280825e-02, -1.11146262e-02,
       -4.85810731e-03, -1.28365215e-02, 1.74547154e-02, 3.93990614e-03,
       8.02442711e-03, -8.11968464e-04, -1.57082919e-02, -6.35318412e-03,
       -1.86226405e-02, -1.68292113e-02, -1.32127460e-02, 2.46270318e-02,
       2.00822465e-02, 1.68994591e-02, -7.13381497e-03, -5.67413121e-03,
       2.92424764e-03, 6.87069865e-03, 1.47749232e-02, 3.45105841e-03,
       -4.15366935e-03, 1.32915075e-03, 5.30259404e-03, 2.27013603e-03,
       -1.73025094e-02, -6.73543848e-03, -4.86188149e-03, 1.20453499e-02,
       -2.05411483e-02, -1.00428853e-02, -6.80958806e-03,
       -9.00314935e-03, -3.22076422e-03, 4.43054829e-03, -3.19625949e-03,
       -1.04723508e-02, -5.61804837e-03, 4.87140985e-03, 2.53332332e-02,
       2.16836538e-02, 1.00482265e-02, -6.01970311e-03, -8.36089253e-03,
       -1.99480895e-02, -3.70637588e-02, -1.87366810e-02,
       -2.68633794e-02, -4.42225812e-03, -2.63684287e-05,
       -5.64057613e-04, -6.82783546e-03, -1.48249967e-02,
       -3.18849015e-05, 2.84831156e-03, 1.63541120e-02, -2.47788103e-03,
       -1.05298767e-02, -4.01565293e-03, 5.42223279e-04, 2.93744681e-03,
       -1.10322302e-02, 8.61670077e-03, 8.98443628e-03, 2.29028240e-02,
       -4.60657990e-03, -8.80600046e-03, -4.17314470e-03,
       -1.50096568e-03, 9.78232268e-03, 4.55193967e-03, -1.16524631e-02,
       -1.59910638e-02, -2.72543170e-03, -1.09675406e-02,
       -2.66359816e-03, 9.90010682e-04, 1.12833008e-02, 9.68757924e-03,
       -7.66919320e-03, -1.06473593e-03, 9.71644092e-03, 1.94803663e-02,
       -1.29607348e-02, -8.11636262e-03, -6.62097335e-03,
       -6.53451949e-04, 3.60643282e-03, -1.52287195e-02, -8.14116467e-03,
       -5.78662660e-03, 1.78852212e-02, -2.21097632e-03, -9.69881075e-04,
       -9.80306417e-03, -1.29850646e-02, -1.67492731e-03,
       -1.13699157e-02, -1.64023433e-02, -1.46682048e-02, 2.11028382e-02,
       6.37777708e-03, 1.78325940e-02, -1.03394110e-02, 2.33144639e-03,
       -1.13072456e-03, -1.05160614e-02, -1.32792518e-02,
       -5.11355884e-03, 1.75377000e-02, -1.10785430e-02, -5.24334982e-03,
       -1.07039055e-02, -3.74586415e-03, -1.47391781e-02,
       -6.51056785e-03, -7.49928586e-05, -3.62926791e-03, 2.56053656e-02,
       -1.68777965e-02, -1.53402786e-03, -4.32332652e-03, 2.73498171e-03,
       -6.98665716e-03, -7.94146117e-03, -1.03971791e-02,
       -5.08309109e-03, 2.13531386e-02, 9.31991730e-03, -3.33459186e-03,
       -1.96159463e-02, -4.81542898e-03, 1.04802684e-03, -9.35486704e-03,
       -3.63572803e-03, 7.38719804e-03, 1.28646176e-02, 1.31810894e-02,
       9.10462067e-03, -1.48935001e-02, -1.72232632e-02, -1.79353748e-02,
       -3.92710837e-03, -2.61067552e-03, -2.11128104e-03, 7.15927407e-03,
       -2.66835317e-02, -1.23871639e-02, -1.72266159e-02, 3.37042357e-03,
       1.13089511e-03, -1.62991770e-02, -1.47918370e-02, -1.05092593e-03,
       -8.98092403e-04, -1.75587200e-02, 9.83029138e-03, -7.48490775e-03,
       3.55950044e-03, -6.13049464e-03, -6.95492793e-03, -1.41480267e-02,
       -8.80193338e-03, 4.11338871e-03, 2.87804659e-02, 2.19454244e-02,
       -4.90616169e-03, -1.19345356e-02, -8.14219378e-03,
       -1.17573719e-02, -1.22764921e-02, -2.56368406e-02,
       -1.53890233e-02, 7.88694131e-04, 6.47528470e-03, -1.61375653e-03,
       3.85712367e-03, -1.23395142e-03, -1.46389557e-02, -1.28175486e-02,
       -7.30491430e-03, 3.60927964e-03, 3.45053966e-03, 2.76177982e-03,
       -8.32348410e-03, 3.48801352e-03, -4.50577540e-03, -1.95167940e-02,
       -4.03936859e-03, -1.69001427e-02, -6.91244891e-03,
       -1.02750398e-02, -1.73434261e-02, -1.89957507e-02, 7.51587446e-04,
       -5.54577308e-03, -1.20845670e-02, -1.62172113e-02,
       -2.00332142e-02, -8.35434347e-03, -1.45900073e-02,
       -1.07401451e-02, -1.56120677e-02, 7.73581304e-03, 5.12613496e-03,
       -5.64737187e-04, -1.32600851e-02, 4.23771935e-03, -2.23675440e-03,
       -4.84246621e-03, -6.06345525e-03, -1.07660033e-02, 1.09075895e-02,
       1.05551658e-02, -1.19576659e-02, -3.80509393e-03, -1.89294796e-02,
       -1.15383398e-02, -1.34980818e-02, -1.25728566e-02,
       -1.54219409e-02, 1.29291962e-03, -4.75355098e-03, 9.29107846e-05,
       -1.07989041e-02, -5.65655855e-03, -1.36081986e-02,
       -1.95245398e-03, -1.18938889e-02, -5.53614786e-03, 2.02489756e-02,
       4.61832853e-03, -6.72547054e-03, -7.58578768e-03, 7.31505267e-03,
       -1.05102509e-02, -8.05400964e-03, -1.21520115e-02,
       -1.74061731e-02, -2.48343591e-03, -8.47316254e-03,
       -1.28424130e-02, -8.88327975e-03, 7.54946563e-03, 1.30773354e-02,
       5.00346627e-03, 4.53472743e-03, -7.50591699e-03, -1.86434528e-03,
       -1.50931748e-02, -3.49381776e-03, -2.99906067e-04,
       -1.25639816e-03, -1.02145337e-02, -2.02780962e-02,
       -1.61374621e-02, -7.63367396e-03, 1.38686765e-02, -4.27935179e-03,
       -8.82427022e-03, 3.12909181e-03, 1.26641486e-02, 9.30983573e-03,
       -8.08645878e-03, 8.18527769e-03, 3.46750999e-03, 1.08433962e-02,
       -1.29687237e-02, -1.88452527e-02, -6.24412484e-03,
       -1.67104590e-03, 1.72350949e-04, -6.12920197e-03, -3.42171435e-04,
       2.24637147e-03, -5.99808292e-04, -1.69922709e-02, -2.23426893e-02,
       1.96977999e-05, -1.50531335e-02, -1.19912010e-02, -1.91228557e-02,
       -1.26444893e-02, -1.05550122e-02, -1.89620592e-02,
       -2.15196349e-02, -9.81979072e-03, -7.83302262e-03, 4.21728566e-03,
       4.46089357e-03, 7.54638948e-03, 1.02590239e-02, 4.27571684e-03,
       1.34950904e-02, -1.12028243e-02, -1.92945395e-02, -9.37080290e-03,
       -7.31322030e-03, -2.45867460e-03, -4.40534996e-03, 8.03536642e-03,
       -2.82822666e-03, 4.93143406e-03, -2.29197983e-02, -2.36972496e-02,
       5.05462196e-03, -1.26025835e-02, -9.94166080e-03, -1.56755764e-02,
       -1.26350271e-02, -7.93297403e-03, -1.05932169e-02,
       -1.54016493e-02, -1.70101896e-02, -5.83312474e-04,
       -1.74507499e-02, -3.15206737e-04, 5.22649800e-03, 8.53899959e-03,
       6.23412943e-03, 3.51572921e-03, -2.19238177e-03, -2.95458641e-02,
       -4.26642364e-03, -2.99161253e-03, -7.18272338e-03,
       -2.42380169e-03, 6.07154425e-03, 2.22979649e-03, 7.95390550e-03,
       -1.43909650e-02, -2.98640262e-02, -1.40143307e-02,
       -1.14621576e-02, -1.04132174e-02, 3.85756558e-03, 1.04615968e-02,
       1.17351189e-02, 8.32069758e-03, -1.89492851e-02, -7.61728408e-03,
       -9.34543274e-03, -1.17742019e-02, 2.28260108e-03, 1.04050143e-02,
       3.23390611e-03, -5.06380852e-03, -9.78726661e-04, -1.05338935e-04,
       6.06453745e-04, -1.85573995e-02, -6.58558914e-03, 6.83740946e-03,
       -1.15423799e-02, -1.05271833e-02, -2.20492110e-03, 1.32948356e-02,
       8.19915254e-03, -1.86902974e-02, -7.07757659e-03, -7.95211457e-03,
       -1.18810125e-02, 6.43923227e-03, 9.51282773e-03, 6.87403651e-03,
       -1.45574985e-03, -1.53964888e-02, -4.90410114e-03,
       -6.23133313e-03, -1.99423521e-03, -1.80028901e-02,
       -2.17845514e-02, -2.55932882e-02, -3.01400828e-03, 3.60029330e-03,
       5.55912545e-03, 2.35303119e-03, -8.17163847e-03, -1.26559194e-02,
       -2.08426500e-03, -3.10401004e-02, -1.26226945e-02, 1.03992345e-02,
       1.60134956e-02, 1.91182680e-02, 2.79714237e-03, -4.42633871e-03,
       9.92515474e-04, 5.32687502e-03, 9.34523903e-03, 4.46235482e-03,
       2.76554953e-02, 2.53316090e-02, 2.61399709e-02, -7.67430104e-03,
       -1.03712697e-02, -1.35698374e-02, -2.59895660e-02,
       -4.37916964e-02, -3.08963116e-02, 2.28063436e-03, 9.07734036e-03,
       1.09636532e-02, -1.69308204e-02, -6.14546891e-03, -6.58476260e-03,
       -1.04774041e-02, 1.55905439e-02, -2.78029451e-03, 1.70053095e-02,
       1.10305827e-02, -3.88218323e-03, -2.86839553e-03, -4.40383842e-03,
       3.35682504e-04, -1.35325314e-02, -4.03132709e-03, 1.06007913e-02,
       2.16123685e-02, 2.42500044e-02, 2.00267415e-02, 2.49850657e-03,
       1.22592673e-02, 3.31409811e-03, 1.06722699e-03, -1.15126818e-02,
       -5.75133017e-04, 9.66804195e-03, 1.67761631e-02, 1.00253029e-02,
       -1.11279022e-02, -9.85306455e-04, -1.17850900e-02,
       -1.79033410e-02, 1.74841972e-03, -1.08626846e-03, 1.53262084e-02,
       1.17885200e-02, -3.88145261e-03, -1.64367147e-02, 8.35502706e-03,
       6.86917501e-03, 3.68023780e-03, -4.70544770e-03, -7.75419234e-04,
       2.94374581e-03, 1.16444528e-02, -7.53312185e-03, -2.95154285e-03,
       1.28149139e-02, 3.27902567e-03, 4.95408848e-03, -2.90427101e-03,
       -1.36720398e-02, 6.57171360e-04, 5.86655317e-03, 3.27582913e-03,
       1.74824614e-02, 1.75559856e-02, 1.00822165e-03, -1.96104590e-02,
       -3.92354326e-03, -1.44959809e-02, 2.55832891e-03, 7.59996660e-03,
       1.33464970e-02, -2.98451781e-02, 3.70607735e-03, -5.99477964e-04,
       5.67423645e-03, 1.53027894e-02, -3.45060648e-03, 8.39534588e-03,
       4.84629767e-03, -1.57359503e-02, -1.87958479e-02, 9.20172222e-03,
       -1.81582931e-03, -1.19374301e-02, 1.14575960e-02, -5.84869485e-05,
       1.28287673e-02, 1.05453134e-02, -1.59568209e-02, -1.52916682e-03,
       -5.67636266e-03, -9.30434465e-03, 2.14358931e-03, -6.84557809e-03,
       1.05334688e-02, -1.54095516e-02, 7.97616411e-03, 1.74701922e-02,
       -4.53280937e-03, -5.76330628e-03, -1.41828060e-02,
       -1.12561127e-02, -3.10943052e-02, 8.34278855e-03, -1.13173230e-02,
       -4.34552669e-04, 1.11896144e-02, 1.41131284e-03, -1.04106916e-03,
       -8.69467389e-03, 1.49276815e-02, -1.16970921e-02, 1.76106207e-02,
       -1.00082317e-02, 1.00008352e-02, 6.95875334e-03, 9.61222313e-03,
       5.78608317e-03, 1.24773826e-03, -9.61559592e-04, -2.75924634e-02,
       2.04191133e-02, 6.41965494e-03, -9.64435632e-04, 4.87870956e-03,
       2.57267128e-03, -1.32026698e-03, -6.26145862e-03, -8.18494591e-04,
       -2.07717810e-03, 1.68482903e-02, 1.24400842e-03, 3.10718617e-03,
       1.31814256e-02, -1.69167556e-02, -1.38597749e-02, -1.31853353e-02,
       -4.80112201e-03, -1.87426694e-02, 6.22278545e-03, 4.31991182e-03,
       2.39500325e-04, -7.07212929e-03, 2.32439991e-02, 9.22172423e-03,
       9.75886546e-03, 7.72757921e-03, 5.87489083e-03, 2.72644609e-02,
       1.08891642e-02, 2.48761754e-03, 1.93595439e-02, 4.27557435e-03,
       -1.69893410e-02, -1.59920100e-02, 3.09556315e-04, 7.20745302e-04,
       1.58891361e-02, 1.24096135e-02, -4.06206353e-03, 1.60867870e-02,
       -5.94060775e-03, 4.56375908e-03, 7.38317100e-03, 1.07721686e-02,
       1.19809182e-02, 1.54386433e-02, 3.71871050e-03, -2.18889699e-03,
       4.92382888e-03, -1.97360478e-03, -1.71516591e-03, -2.74159526e-03,
       4.53643687e-03, 1.11379344e-02, 2.76436168e-03, -2.61617973e-02,
       -1.98779609e-02, 9.25672986e-03, 4.64490289e-03, -4.50336840e-03,
       -8.34387902e-04, 2.16941405e-02, 2.18630042e-02, 2.99344677e-02,
       1.40160043e-02, -1.02748591e-02, 1.00104287e-02, -4.36943537e-03,
       -2.58802320e-03, -1.78038664e-02, 1.35314781e-02, 6.07289700e-03,
       1.91652607e-02, -1.59103442e-02, -2.35440284e-02, 5.10636484e-04,
       -6.91181468e-03, -5.62679814e-03, -5.94198145e-03,
       -1.14348448e-04, -6.44854782e-03, 1.45582007e-02, -2.01185588e-02,
       -1.33199766e-02, 1.73591753e-03, -7.81053491e-03, -1.14348915e-03,
       -1.83939617e-02, 5.48167154e-03, -4.83551202e-03, 2.00866144e-02,
       4.48912987e-03, 5.98549796e-03, -2.62864307e-03, 1.33951521e-02,
       2.44134828e-03, -1.11049460e-02, 7.65970349e-03, -7.95031618e-03,
       8.24954920e-03, -1.74630005e-02, -2.00434215e-02, 3.16139008e-03,
       4.13915515e-03, -4.41191625e-03, 2.20280475e-04, 1.98882334e-02,
       2.63167010e-03, -1.17044162e-03, -8.71198904e-03, -1.10602872e-02,
       -6.91810250e-03, -5.28688543e-03, -9.79927834e-04,
       -1.41660813e-02, -3.63656762e-03, 6.58371300e-03, 1.70174260e-02,
       4.81434574e-04, 6.11746637e-03, 5.54581289e-04, -4.08602273e-03,
       -1.86394174e-02, -1.24049922e-02, -2.12984881e-03, 1.50949752e-03,
       2.42859870e-02, 7.35351723e-03, 1.34950140e-02, 7.47759268e-03,
       7.45005906e-03, 5.34191495e-03, -8.09899624e-03, 6.19529933e-03,
       6.43633679e-03, -1.66199156e-04, -1.48628037e-02, -2.95042945e-03,
       2.20009498e-03, -1.05647203e-02, -1.56714097e-02, -3.68764922e-02,
       -1.76241361e-02, -5.77314198e-03, 2.30322080e-03, 8.63500405e-03,
       2.07779780e-02, -5.49535407e-03, -9.83021874e-03, -2.12150645e-02,
       -1.63510907e-02, -9.82473884e-03, -5.46196755e-03, 1.30443387e-02,
       5.67932101e-03, 1.59623232e-02, 7.41635496e-03, -3.43999313e-03,
       -8.58641230e-03, -1.65431239e-02, -1.57680567e-02,
       -1.34279951e-02, 1.51818693e-02, 1.21977450e-02, 1.20325685e-02,
       -1.07413356e-03, -2.01881435e-02, -1.34443631e-02,
       -1.98496617e-02, -1.77350529e-02, -6.05059601e-03, 1.01537919e-02,
       9.74588562e-03, 1.84987597e-02, -1.71351414e-02, -6.37884205e-03,
       4.65355015e-06, -1.72896609e-02, -1.18186614e-02, -5.26779378e-03,
       2.42724046e-02, 6.95297820e-03, 1.66605059e-02, -2.36575920e-02,
       4.20868769e-03, -9.29876289e-04, -1.24376742e-02, -1.87747675e-04,
       7.29471073e-03, 1.13498494e-02, 9.15826298e-03, -9.44632292e-03,
       -1.91901941e-02, -1.67223846e-03, -1.39459362e-02,
       -3.81505415e-02, -1.08816698e-02, -1.40159344e-02,
       -1.26563134e-02, -6.93917173e-05, -3.90036684e-03,
       -9.58322827e-03, 3.30102118e-03, 1.94200128e-02, -2.45475490e-03,
       7.06902286e-03, 1.69082023e-02, 2.12016013e-02, 1.08614387e-02,
       9.35416669e-03, -2.47503463e-02, 3.59135214e-03, 1.12430193e-02,
       -6.20042020e-03, -1.30876235e-03, -1.37884421e-02,
       -2.01174822e-02, -3.48086655e-03, 1.03996936e-02, -8.31375178e-03,
       -4.56377212e-03, -8.57976824e-03, -1.59929022e-02,
       -1.93462486e-03, -1.12124309e-02, -2.01781169e-02,
       -9.22129955e-03, -8.67640600e-03, -6.17264246e-04,
       -3.21536907e-03, -1.21195114e-03, -6.09898428e-03, 6.31614774e-03,
       -4.08466207e-03, -1.36243040e-02, -5.50193200e-03,
       -1.98828895e-02, -6.54825475e-03, 1.83978640e-02, 2.14982009e-03,
       -1.12400148e-02, -1.81274861e-03, -6.84095966e-03,
       -2.85728890e-02, -1.06867645e-02, 9.10039805e-03, 1.72130521e-02,
       1.02484031e-02, 9.62321833e-03, -9.06855857e-05, 1.87844946e-03,
       2.90323328e-03, -1.91414077e-02, -9.87191685e-03, -1.28436508e-03,
       4.60198289e-03, -5.09374216e-03, -6.16544974e-04, 5.17795468e-03,
       1.32420510e-02, -6.08552480e-03, -9.03699547e-03, -7.32532889e-03,
       -1.09573826e-02, -1.41947325e-02, -2.89781182e-03, 8.30868911e-03,
       7.76723633e-03, 2.87937336e-02, -1.29639003e-02, -2.33495180e-02,
       -2.19227597e-02, -1.64209958e-02, -1.75676774e-02, 8.78755189e-03,
       2.05669161e-02, 1.97343752e-02, 6.75752666e-03, -1.07574435e-02,
       -1.20320003e-02, -1.45905335e-02, -6.32714666e-03,
       -7.51376059e-03, 4.39091166e-03, 1.98325180e-02, 2.68379860e-02,
       3.65958288e-02, -1.82151534e-02, -1.85877252e-02, -2.03322042e-02,
       -9.69664194e-03, -7.57962372e-03, 1.09419590e-02, 4.27590730e-03,
       -5.13638416e-03, 5.40930498e-03, -1.17181297e-02, -1.68441366e-02,
       -1.36338342e-02, -2.31178408e-03, 5.58150699e-03, -5.07486705e-03,
       -8.95382557e-03, -1.24011748e-02, -6.73867529e-03,
       -1.37275970e-03, 3.23072571e-04, -6.38785493e-03, 1.36228818e-02,
       9.34383087e-03, 3.00847506e-03, 1.11638615e-02, 2.78783590e-03,
       2.54477002e-02, -2.19311602e-02, -2.39584893e-02, -1.40072340e-02,
       -7.75896618e-03, -9.10587434e-04, -2.89560715e-03,
       -6.51655160e-03, -4.61610360e-03, 1.73042025e-02, 3.03480247e-05,
       -2.47856416e-02, -2.16268152e-02, -7.53289089e-03, 5.87365543e-03,
       -2.87010521e-03, -4.85807238e-03, -5.64592099e-03, 3.66515666e-03,
       9.04215034e-03, -5.84861822e-03, -1.52971055e-02, 1.38441846e-02,
       1.06257759e-02, -1.31842261e-02, 9.72882379e-03, -1.28500201e-02,
       -7.51518644e-03, -8.31413455e-03, -1.68413632e-02,
       -1.90368816e-02, 4.68323560e-04, 6.25108043e-03, -1.73664056e-02,
       -7.81955384e-03, 1.61285559e-03, 4.14157938e-03, -2.96611711e-03,
       -1.48815494e-02, -1.89908259e-02, 1.14268530e-02, 1.85772532e-03,
       -8.29478819e-03, 2.48470868e-04, -2.49346206e-03, -1.11143487e-02,
       -1.13817779e-02, -1.34553909e-02, -1.51636293e-02, 7.20792962e-03,
       4.44286549e-03, -1.02410484e-02, -3.64685874e-03, -1.86351482e-02,
       -1.71227641e-02, -1.31622395e-02, -1.68577172e-02,
       -7.95105565e-03, 7.17492355e-03, 2.86133890e-03, -1.11995284e-02,
       -1.67512689e-02, -1.35771167e-02, -3.45970015e-03, 1.25729153e-03,
       -1.26341009e-03, 7.75894104e-03, 1.47086727e-02, 5.37034310e-03,
       -1.91570688e-02, -1.00276864e-03, -7.43703730e-03,
       -1.71452258e-02, -3.48121393e-03, -8.60313233e-03,
       -6.66967127e-03, 6.70763245e-03, -1.10328468e-02, -1.77612305e-02,
       -1.37496842e-02, -1.81258307e-03, 1.22477552e-02, 8.97132605e-03,
       4.96792700e-03, 2.86139036e-03, 6.10919623e-03, -1.19209550e-02,
       -8.19961261e-03, -3.43686738e-03, -5.03460085e-03, 1.47513300e-03,
       -6.29973365e-03, -1.71294026e-02, -9.87412408e-03, 7.93169253e-03,
       2.12846859e-03, -1.77365951e-02, 1.68196042e-03, -5.41577574e-05,
       1.10309925e-02, 1.01084663e-02, 1.43816499e-02, 1.75182486e-03,
       1.30103957e-02, -9.80591960e-03, -1.61673874e-02, -1.22055858e-02,
       -7.28096906e-03, 1.09800659e-02, 2.34043249e-03, -2.37655286e-02,
       -1.88585389e-02, -8.81840754e-03, -1.70486905e-02,
       -1.99377723e-02, -2.29536556e-03, -5.48185641e-03, 1.27638588e-02,
       5.77527471e-03, -2.70221359e-03, -1.42572019e-02, 2.61121226e-04,
       -1.87406037e-02, -2.55436637e-02, -1.18605811e-02,
       -3.22938757e-03, 4.13979311e-03, 9.25382506e-03, 3.77299986e-03,
       8.13657185e-04, 1.99586339e-02, -1.63708348e-02, -3.35659832e-02,
       -9.27469507e-03, 1.81287352e-03, -3.35177127e-03, 4.23605088e-03,
       -1.54306472e-03, -6.05615508e-03, 1.21693024e-02, -2.46173851e-02,
       -3.07792425e-02, -1.93471685e-02, -1.72790792e-02,
       -7.88993575e-03, 1.37107000e-02, 3.33376403e-04, -8.38573091e-03,
       1.47148268e-02, -2.00244635e-02, -2.54334733e-02, -9.88425035e-03,
       9.85381543e-04, -9.35417600e-03, -1.67592952e-03, 8.48621503e-03,
       -3.55164264e-03, 1.67679656e-02, -2.23237202e-02, -2.84238309e-02,
       -6.54262817e-03, -1.91789982e-03, -8.21600016e-03, 1.27025263e-03,
       6.05002418e-03, -5.95529040e-04, 1.05421664e-02, -1.83638334e-02,
       -2.61272639e-02, -1.96587965e-02, -1.76871493e-02,
       -1.91163663e-02, 4.47286852e-03, 1.53370609e-03, 6.79129036e-03,
       1.98469311e-03, -2.30983961e-02, -1.33624664e-02, -1.06220404e-02,
       -1.18419817e-02, -1.43945217e-02, -2.48155161e-03, 1.48628105e-03,
       -2.52119242e-03, 1.61037408e-02, -9.38287470e-03, -5.88704075e-04,
       -1.23267919e-02, -2.28181127e-02, -7.30360486e-03, 1.48760863e-02,
       -1.10762529e-02, 6.55381428e-03, 1.79183539e-02, -2.03424389e-03,
       -1.77856255e-02, -6.71294192e-03, -6.02008682e-03,
       -1.71062164e-02, 5.22219157e-03, -4.08178102e-03, -7.95419980e-03,
       -1.27873011e-02, -2.55226362e-02, -1.72976609e-02, 3.46934563e-03,
       -1.06824189e-02, -1.71457920e-02, -4.11248766e-03,
       -1.83641203e-02, -1.71065684e-02, -1.15256011e-02,
       -1.41139776e-02, 6.61147991e-03, -1.96307315e-03, -1.59123745e-02,
       -8.55299737e-03, 6.39682030e-03, -1.53372763e-02, -8.78520217e-03,
       5.05230948e-03, 1.62853030e-04, -6.38871547e-03, 4.05274937e-03,
       -1.98066831e-02, -2.39797886e-02, 8.28036387e-03, -1.14422580e-02,
       -1.15908822e-02, -2.82915798e-03, -8.03065952e-03,
       -1.80565622e-02, -4.69299499e-03, -1.69285256e-02,
       -2.76200753e-02, -2.39640009e-02, -2.33107824e-02,
       -6.67527737e-03, -3.80017189e-03, -5.86937601e-03,
       -1.61404163e-02, 5.27211744e-03, -7.11788749e-03, -2.19459087e-02,
       1.67811904e-02, 6.96962234e-04, 5.27842669e-03, 2.95267254e-03,
       -1.64884534e-02, -1.24031790e-02, 7.66111678e-03, -2.48642992e-02,
       -2.93001086e-02, -5.35774417e-03, -1.48985144e-02,
       -6.21556537e-03, 6.94003282e-03, -1.59031723e-03, -9.86085460e-03,
       1.02657871e-02, 4.14415335e-05, -1.71952732e-02, 1.71054769e-02,
       9.97425243e-03, 8.61379039e-03, 1.66573934e-02, -3.77940363e-03,
       -8.55358504e-03, 8.21763556e-03, -4.69125807e-03, -8.06867424e-03,
       -8.85010883e-03, -7.66528319e-05, 1.39828641e-02, 1.02741392e-02,
       -1.03270933e-02, -1.81560703e-02, 8.43853597e-03, 7.43148522e-03,
       5.11255953e-03, -1.57112349e-03, -7.50612421e-03, 7.62278540e-03,
       9.17948876e-03, -1.83866546e-02, -1.63146742e-02, 5.01378253e-03,
       9.91400564e-04, -8.62698816e-03, 1.63742504e-03, 1.01997815e-02,
       7.85715785e-03, 1.28095737e-02, -1.68674830e-02, -2.64665149e-02,
       2.41277914e-04, -4.14840784e-03, 5.13729919e-03, 1.01374350e-02,
       1.18078478e-02, 1.56382546e-02, 1.59578130e-03, -2.24642176e-02,
       -2.25703083e-02, -6.73977425e-04, -4.16066637e-03,
       -2.78377137e-03, 1.70505382e-02, -5.40190702e-03, 7.26266950e-03,
       6.61536772e-03, -1.83819458e-02, -1.81127600e-02, 8.81816633e-03,
       -3.59755056e-03, -1.19056096e-02, 1.80850998e-02, 3.44477571e-03,
       1.47898085e-02, 7.82472454e-03, -1.15445564e-02, -2.87319161e-02,
       -6.20221533e-03, -7.07401335e-03, -1.47616370e-02, 1.40147912e-03,
       -3.08274361e-03, 5.45656122e-03, 5.02284849e-03, -1.50885964e-02,
       -7.48028979e-03, -9.63267311e-03, -1.00441407e-02,
       -9.65910126e-03, 3.17460578e-03, -4.92427323e-04, 1.36716468e-02,
       1.80590991e-02, 1.27994642e-02, 6.13560481e-03, -5.53355971e-03,
       -3.73072387e-03, 1.40847303e-02, 8.49835982e-04, 2.18107831e-02,
       1.48991053e-03, 2.55038287e-03, 7.42174266e-03, 1.97707117e-03,
       1.06906425e-03, 1.10408280e-03, -6.19791262e-03, 1.68249768e-03,
       2.63484120e-02, 1.26602259e-02, -5.76223596e-04, 5.44493180e-03,
       -1.97628606e-02, -1.01175634e-02, -5.74642001e-03, 2.22118502e-03,
       -1.00286901e-02, 1.24939410e-02, -1.22885406e-02, -1.24254115e-02,
       -1.00980261e-02, -2.75491588e-02, -4.96398425e-03,
       -7.01111462e-03, -1.47299776e-02, -9.45182052e-03, 1.38587039e-03,
       -1.14252884e-02, -7.52369734e-03, -1.97521225e-02, 1.13460664e-02,
       1.20117245e-02, 1.69788767e-02, 1.16320346e-02, 2.37035919e-02,
       1.39160128e-02, -5.29125275e-04, 4.63212142e-03, 8.04709271e-03,
       1.17071373e-02, -4.64942446e-03, 6.99454639e-03, 9.84494016e-03,
       1.67918429e-02, 4.76450566e-03, -8.79872032e-03, -1.61503386e-02,
       9.64286923e-03, -1.21689225e-02, -1.83642108e-03, 2.42056767e-03,
       8.70992523e-03, 2.91604525e-03, -1.05923200e-02, -1.42057585e-02,
       -7.11381948e-03, -1.22558391e-02, 2.51425547e-03, 2.72799376e-03,
       7.93239102e-03, 1.69875175e-02, -1.91125162e-02, -5.31887589e-03,
       -1.65755339e-02, -2.42881142e-02, -7.50910165e-03, 1.01117268e-02,
       1.40379404e-03, 3.34366527e-03, 1.42096290e-02, 1.47383679e-02,
       8.54719337e-03, -7.42735900e-03, -3.00760586e-02, 6.70782849e-03,
       2.55519487e-02, 1.38667990e-02, -1.08140074e-02, -1.05595225e-02,
       -9.00644623e-03, -1.02751912e-03, -1.10579859e-02,
       -3.62537540e-02, 8.78997892e-03, 2.23607570e-02, 2.04627290e-02,
       2.00405624e-02, 9.13835969e-03, -1.32315354e-02, -1.56548736e-03,
       -1.25464462e-02, -3.53239030e-02, 5.89875132e-03, 2.85574738e-02,
       1.57799534e-02, 1.69911422e-02, -9.18516796e-03, -2.23131739e-02,
       -9.28789552e-04, -8.03975388e-04, -2.39043441e-02, 4.92618093e-03,
       2.87656691e-02, 1.25631066e-02, -1.92115903e-02, -1.26743419e-02,
       -6.05995720e-03, -7.63796968e-03, -1.48205291e-02,
       -2.86597405e-02, 5.25407167e-03, 2.31837519e-02, 1.38691079e-03,
       -1.45099517e-02, -2.28818832e-03, -1.15493443e-02,
       -6.24171970e-03, -1.25254169e-02, -2.27350853e-02, 2.69783963e-03,
       2.63239574e-02, 2.67137517e-03, -1.11863147e-02, -5.69441170e-03,
       6.34862401e-04, -2.26236973e-03, 9.64895647e-04, -1.74304135e-02,
       1.08189939e-03, 2.08456833e-02, 5.13457321e-03, -2.32377951e-03,
       1.32790674e-02, 8.21315963e-03, 9.59090947e-04, 8.72233510e-03,
       -1.46531435e-02, 7.37092877e-03, 9.97769739e-03, 3.75240250e-03,
       -1.55616682e-02, -5.14614920e-04, -4.84277448e-03,
       -1.08211013e-02, -7.35157402e-03, -1.22851860e-02, 6.46190601e-04,
       -6.26104465e-03, -3.37208179e-03, -1.76312346e-02, 1.85368117e-03,
       -1.47831338e-02, -2.21111011e-02, -1.07838120e-02, 1.18835391e-02,
       -5.72860055e-03, 8.62229150e-03, 1.58891343e-02, 3.51958512e-03,
       2.06334852e-02, 2.52452167e-03, 5.05701778e-03, 6.75473595e-03,
       -4.04931372e-04, 2.47150054e-03, 1.04506556e-02, 1.93722192e-02,
       2.86878692e-03, 2.55455784e-02, -1.08971633e-02, -1.65953953e-02,
       -1.12739680e-02, 5.18130558e-03, 1.21911673e-03, -4.37389174e-03,
       7.21827568e-03, 3.45373433e-03, 5.33385016e-03, -4.75875771e-04,
       -6.91551901e-03, -1.50515058e-03, 8.94769374e-03, -8.36357567e-03,
       4.18265210e-03, 1.54283177e-02, -5.17862709e-03, -4.66046343e-03,
       4.70903981e-03, 1.22603280e-02, 6.21652603e-03, 6.60964567e-03,
       -1.37013812e-02, 3.18995188e-03, 2.62801982e-02, 3.81631963e-03,
       2.03239955e-02, 2.40302854e-03, -2.05510911e-02, -1.32116405e-02,
       -6.75782142e-03, -1.44533161e-02, -1.59860607e-02, 1.77523680e-02,
       7.13302521e-03, 7.89318420e-03, 1.08040823e-03, -2.15551425e-02,
       -1.46685429e-02, -1.52822852e-03, -1.56086627e-02, 5.20337024e-04,
       1.87357776e-02, -1.13260010e-02, 1.73997425e-03, 1.70012303e-02,
       1.26560191e-02, -7.45546655e-04, 4.09295084e-04, -9.01831686e-03,
       2.04389803e-02, 2.13017985e-02, 5.10302139e-04, -1.33630699e-02,
       -5.32034412e-03, -8.33172631e-03, -2.63175718e-03,
       -6.13129931e-03, 6.49717078e-03, -1.70916726e-03, 2.79631447e-02,
       6.16190257e-03, 8.70677643e-04, 2.97816750e-03, -3.38016252e-04,
       -8.74579698e-03, 1.05103739e-02, -5.64636290e-03, 8.22744891e-03,
       2.99041402e-02, -3.70116650e-05, -2.55400036e-02, -1.77361630e-02,
       -7.14830915e-03, -4.26918734e-03, 7.44610373e-03, -4.16967133e-03,
       2.36784872e-02, 1.09959012e-02, 2.98534380e-03, -1.04331542e-02,
       -1.07992338e-02, -2.10762061e-02, -1.38031216e-02,
       -9.00496170e-03, 2.02065501e-02, 9.99562629e-03, 1.83037817e-02,
       7.15223327e-03, 8.49513710e-03, -2.06501316e-03, -2.61821151e-02,
       -2.40124650e-02, -5.52330678e-03, 1.56674795e-02, 2.02250835e-02,
       3.08228303e-02, 1.09924544e-02, -7.99633097e-03, -1.31158568e-02,
       -4.65267990e-03, -1.95509214e-02, -1.28152436e-02,
       -1.00079142e-02, 1.24108102e-02, 2.44379565e-02, 1.43309524e-02,
       9.47295874e-03, 5.02221636e-04, -1.38600087e-02, -3.22747678e-02,
       -1.02265477e-02, -3.39367334e-03, 1.34956222e-02, 1.61393937e-02,
       8.77986755e-03, 6.95185317e-03, 2.17412575e-03, -2.04933342e-02,
       -1.41931148e-02, 2.24937429e-03, 1.24293771e-02, -4.91069630e-04,
       1.72903556e-02, 1.97888594e-02, 1.69908982e-02, -6.91625243e-03,
       -1.96288060e-02, -1.47197349e-02, 5.36159659e-03, -2.66628573e-03,
       -4.43942053e-03, 2.29052221e-03, -2.04019234e-04, -2.25187931e-03,
       -3.25500593e-03, -2.48371344e-02, -1.78525914e-02, 6.49405085e-03,
       -2.40925676e-03, -1.00823678e-02, -6.92063291e-03, 7.57245440e-03,
       -5.04787778e-03, -5.03254868e-03, -1.08176665e-02,
       -3.27256508e-03, 1.69414692e-02, 2.15496076e-03, 1.98149122e-04,
       1.47862174e-02, 8.07491690e-03, 1.20813865e-02, -1.63470861e-02,
       -2.42669545e-02, -1.10425279e-02, 4.93490137e-03, 4.14231094e-03,
       -5.06793568e-03, 2.46911938e-03, -1.90444477e-03, 1.60677694e-02,
       -2.12199297e-02, -3.68466936e-02, -2.34972853e-02, 2.27568531e-03,
       7.34885642e-03, -4.10005124e-03, 5.37506491e-03, 6.67301659e-03,
       3.99145298e-03, 3.34642548e-03, -2.61688279e-03, -2.37326225e-04,
       1.89229529e-02, 3.13274260e-03, 4.57066548e-04, -9.91827343e-04,
       3.99546989e-04, 1.15611358e-02, -1.67309511e-02, -1.21740857e-02,
       -3.25454888e-03, 1.66491307e-02, 8.87718424e-03, -2.26111934e-02,
       -5.69370401e-04, 1.99132226e-03, 7.46182259e-03, -2.00709663e-02,
       -2.85215117e-02, -1.22690909e-02, 5.27090300e-03, -2.51344941e-03,
       -2.29528584e-02, -6.23702165e-03, -4.82993404e-04,
       -1.48894479e-02, -1.94234084e-02, -1.64719205e-02,
       -2.13676356e-02, -1.03186909e-02, -1.02761770e-02,
       -2.41980958e-03, -2.98068603e-03, 3.26430984e-03, 1.36361001e-02,
       -9.63122584e-04, -3.75478878e-03, -9.34120081e-03, 1.39461150e-02,
       1.28181269e-02, -1.55465426e-02, -1.16663985e-02, -3.65341222e-03,
       2.07249611e-03, 3.27278953e-03, 2.72075849e-04, -1.21505428e-02,
       1.01051922e-03, 3.36301257e-03, -2.38045622e-02, -3.41912452e-03,
       -2.23629700e-04, -1.75507553e-02, 2.52362597e-03, -1.34852249e-02,
       -1.71029270e-02, -1.16326632e-02, -1.61447506e-02,
       -1.90728363e-02, -5.32763312e-03, 1.67832174e-03, 4.54082433e-03,
       1.12648429e-02, -1.25015294e-02, -1.73261538e-02, -6.68606767e-03,
       -1.61224809e-02, -2.90684234e-02, -1.30331935e-02,
       -4.41874936e-03, 3.98430071e-04, 7.93129019e-03, 6.01496431e-04,
       -4.81426390e-03, 1.27916306e-03, -1.39437458e-02, -1.32114850e-02,
       -2.69712094e-04, 4.80825780e-03, 1.80866402e-02, 2.18565091e-02,
       5.93710225e-03, -4.83137323e-03, 7.34650064e-03, -9.13487189e-03,
       -2.26287600e-02, -1.23200973e-03, -1.23554748e-03, 1.50991753e-02,
       -9.22793290e-04, -2.47829463e-02, -1.89413913e-02,
       -1.34353433e-02, -2.05729827e-02, -2.93304548e-02,
       -2.23032502e-03, -5.66699775e-03, 1.94895100e-02, 1.54211232e-02,
       -3.62830679e-03, -6.48613833e-03, -8.81851651e-03,
       -3.28194052e-02, -5.54559799e-03, 8.36427230e-03, 8.02908558e-03,
       1.72541104e-02, 1.24600166e-02, -1.77506581e-02, -1.39650665e-02,
       -4.18198528e-03, -1.29992282e-02, -1.29378131e-02, 4.59994376e-03,
       1.17966079e-03, 2.40541901e-02, 2.03514937e-02, -5.85445575e-03,
       4.05078009e-03, -1.22922473e-02, -1.54613312e-02, -3.10980733e-02,
       -1.25830686e-02, -1.32858027e-02, -4.66176681e-03, 1.14164129e-02,
       6.65370515e-03, -3.40240565e-03, 3.63533013e-03, -1.99564938e-02,
       -2.76391450e-02, -8.66262708e-03, -9.13874991e-03,
       -2.04697326e-02, 3.15506849e-03, 1.39597179e-02, -1.10437257e-04,
       7.23694963e-03, -2.53763758e-02, -1.94761641e-02, -4.55938373e-03,
       -4.27753385e-03, 1.62323955e-02, 1.51289320e-02, 7.79671595e-03,
       3.02740280e-03, -9.48167313e-03, -1.96779370e-02, -1.61636062e-02,
       -1.20217968e-02, -9.56292544e-03, -1.19872456e-02, 1.15941279e-02,
       5.51081821e-03, 9.74624127e-04, 4.13379073e-03, -1.78502742e-02,
       -2.98499390e-02, 4.13175533e-03, -9.27801430e-03, -1.97854117e-02,
       -2.19797599e-03, 1.81837659e-03, -4.39196313e-03, 2.79075932e-03,
       -2.58879308e-02, -1.78987756e-02, 9.95271467e-03, -3.33512260e-04,
       -3.19378753e-03, 4.45189071e-04, -2.15933919e-02, -2.80169398e-03,
       9.71105974e-03, -1.69713143e-02, -1.78943500e-02, 3.22237331e-03,
       -1.55425761e-02, -2.37376727e-02, -1.55296375e-03, 6.78585563e-03,
       1.63624808e-02, 7.59453792e-03, -1.63603947e-02, -9.69765149e-03,
       1.63993649e-02, 1.16994418e-03, -1.09834746e-02, 5.37467701e-03,
       -2.17111036e-03, 1.29109155e-02, 5.68339601e-03, -1.96008459e-02,
       -2.56308541e-03, 4.83897841e-03, -5.84274996e-03, -1.31541789e-02,
       -5.14707947e-03, -2.17309892e-02, -5.05997660e-03, 4.26539918e-03,
       -6.11136062e-03, -1.19280536e-02, 2.80730473e-03, -1.42755629e-02,
       -2.61805952e-02, 5.47482632e-04, -2.24281531e-02, -6.03610650e-03,
       -3.82055179e-03, -1.46385180e-02, 1.53777748e-03, 1.13727907e-02,
       4.83162515e-03, -1.27440766e-02, -9.17455554e-03, -1.08094122e-02,
       9.55474004e-03, 5.33641549e-03, -1.68111213e-02, 7.24868709e-03,
       5.53849712e-03, 1.73637678e-03, -4.13873373e-03, -7.04464968e-03,
       -1.48948058e-02, -2.97673582e-03, 7.69963255e-03, -2.74270936e-03,
       -1.05426060e-02, -2.63090536e-04, -2.18211003e-02,
       -2.62281615e-02, -7.34582962e-03, -8.49558972e-03, 4.84106736e-03,
       1.49711519e-02, -9.32363886e-03, -8.28711130e-03, -1.39868891e-04,
       -1.40341520e-02, -2.34640446e-02, 4.10018722e-03, 1.41502861e-02,
       1.93783976e-02, 3.11098024e-02, -8.04135203e-03, -4.07930650e-03,
       1.20713864e-03, -7.73957791e-03, -6.88940985e-03, -4.21950780e-03,
       1.96703919e-03, 1.91809330e-02, 2.19945889e-02, -5.53617207e-03,
       -6.40374096e-03, -6.30020676e-03, -2.46877708e-02,
       -2.26314664e-02, 1.86582806e-03, 9.06856451e-03, 2.83359103e-02,
       2.39316896e-02, -1.24564515e-02, -3.72224068e-03, 1.18865995e-02,
       -2.69588875e-03, -1.46350442e-02, -6.89272210e-03, 7.16081914e-03,
       1.03505868e-02, 1.79371014e-02, -8.78166314e-03, -1.31319594e-02,
       -2.54924037e-03, -2.95493123e-03, 1.06329890e-03, 2.26290170e-02,
       1.80417299e-02, 1.09848324e-02, 3.33859911e-03, -6.29739044e-03,
       -5.18835755e-03, 5.91520802e-04, -1.72077585e-02, -1.67923998e-02,
       -1.16831213e-02, -3.31633002e-03, 9.59102809e-03, 1.32255014e-02,
       -1.24610085e-02, -1.32620409e-02, -6.72879582e-03,
       -1.46016618e-02, 3.46701080e-03, 1.71378944e-02, 6.78497879e-03,
       5.60308015e-03, 2.67031649e-03, -4.98068938e-03, -1.69288237e-02,
       -1.42856101e-02, -1.65055990e-02, -1.42568257e-02, 4.42185951e-03,
       -5.19283162e-03, -2.42958940e-03, 5.25591569e-03, 5.98136010e-03,
       4.52325633e-03, -1.19631225e-02, -2.65228432e-02, -3.97173502e-03,
       -8.06134939e-03, -1.35529656e-02, 7.85400625e-03, 1.60032380e-02,
       2.02076770e-02, -2.37379805e-03, -2.22629476e-02, -2.62499284e-02,
       -9.41878650e-03, 4.80002631e-03, -4.87648882e-03, -3.89655674e-04,
       1.48395146e-03, 6.42372482e-03, 1.41591430e-02, 3.28653306e-03,
       -9.17984825e-03, 1.17279924e-02, -4.87760501e-03, -2.15777662e-02,
       -7.25684408e-03, 1.17185647e-02, 2.00811699e-02, -9.60199721e-03,
       4.49943269e-04, -1.16502773e-03, 6.37267716e-03, -4.06679697e-03,
       1.38465315e-02, -9.81744658e-03, -4.99543827e-03, -3.23831220e-03,
       -7.53238890e-03, -5.14202612e-03, -7.61231501e-03, 7.96456076e-03,
       8.01074039e-03, 6.57386659e-03, -3.59202782e-03, -1.51711265e-02,
       -5.35748992e-03, -1.46410586e-02, -6.36013271e-03,
       -7.04929815e-04, 3.79188871e-03, -1.70093291e-02, -3.45969194e-04,
       -2.03240365e-02, -1.82787254e-02, -1.85382683e-02,
       -2.52882164e-04, -6.13789167e-03, -5.66078490e-03, 5.37751708e-03,
       -3.16836545e-03, 7.89304450e-03, -2.11438183e-02, -3.34697068e-02,
       -1.13210073e-02, -4.46035573e-03, 4.97257430e-03, 7.19338376e-03,
       7.90804438e-03, 1.39144436e-02, -1.27751043e-03, -1.49044152e-02,
       -1.31805632e-02, -7.86436349e-03, -6.33487059e-03, 1.23491157e-02,
       3.43576004e-03, 1.00315548e-02, -4.41538636e-03, 9.82887670e-03,
       -5.46515686e-03, -1.26482174e-02, -1.56761557e-02,
       -1.27587952e-02, 1.06779030e-02, -5.45089599e-04, 8.85135494e-03,
       1.92164001e-03, 9.47350264e-03, -2.14744993e-02, -2.94248518e-02,
       -1.79214925e-02, -9.84863658e-03, 1.34967957e-02, 3.31359071e-04,
       1.23713752e-02, 1.24249803e-02, 1.40255569e-02, -1.85007118e-02,
       -1.41555825e-02, -2.57113874e-02, 1.75345074e-02, 1.83815993e-02,
       1.42068332e-02, 1.00720944e-02, -2.52257963e-03, 1.47260409e-02,
       8.37099506e-04, -1.59498155e-02, 6.08907687e-03, 2.68723462e-02,
       8.95886868e-03, 2.83866958e-03, -4.46300255e-03, -2.09012758e-02,
       4.13405569e-03, 3.95538099e-03, -1.26874866e-02, 1.87362060e-02,
       7.64771423e-04, 9.87312105e-03, 9.50415619e-03, 5.03656035e-03,
       1.22960471e-03, 2.23031603e-02, -3.47539410e-03, -5.97847393e-03,
       -6.87549962e-03, 1.03052203e-02, 1.22287340e-04, 1.23077342e-02,
       -1.29903024e-02, -1.89133957e-02, -2.82594282e-03,
       -7.26398919e-03, -8.58702697e-03, 3.77015490e-03, 1.43672153e-02,
       -3.53653077e-03, -1.10549042e-02, -1.93300080e-02,
       -7.14844652e-03, -8.11404269e-03, -1.89929269e-02,
       -2.07603052e-02, 9.41688940e-03, 1.27616692e-02, 1.28723951e-02,
       7.82490708e-03, 6.27326313e-03, 4.58780676e-03, -1.06038423e-02,
       -7.03160698e-03, -2.33723521e-02, 4.47569910e-04, 1.34168379e-02,
       2.81559117e-03, 7.50542386e-04, -2.44669616e-02, -6.23564189e-03,
       -1.52617181e-02, -1.54551491e-02, -1.30456677e-02, 4.20820154e-03,
       2.89243776e-02, 3.41199003e-02, 1.52639365e-02, -1.73656945e-03,
       -1.03275420e-03, -7.93397520e-03, -1.40767088e-02,
       -5.20576537e-03, 1.36464527e-02, 5.23473741e-03, 2.17598695e-02,
       1.33298151e-02, 1.29433582e-02, 8.10636766e-03, -3.58573953e-03,
       -1.32153314e-02, -1.77587550e-02, -2.68620066e-03,
       -1.73295091e-03, 1.85790602e-02, 1.14931948e-02, 2.11311858e-02,
       3.95383174e-03, -8.49268772e-03, -2.06713323e-02, -1.58197749e-02,
       2.81239254e-03, 1.32501721e-02, 2.41971295e-02, 1.11020282e-02,
       4.20329627e-03, 5.82614029e-03, -3.91690060e-03, -1.69667844e-02,
       -1.72827428e-03, 8.65347870e-03, 5.77185862e-03, 1.75366905e-02,
       -4.98633250e-04, 1.49088530e-02, -3.42407986e-03, -1.15173832e-02,
       -1.80630405e-02, -5.20722894e-03, 4.21225512e-03, -1.01567805e-02,
       9.40100197e-03, -2.65589845e-03, -2.28664465e-03, -4.85944329e-03,
       -1.78499594e-02, -2.43698452e-02, -1.64059792e-02,
       -2.25408394e-02, -3.94651666e-03, 3.07251569e-02, 2.28054766e-02,
       3.18629690e-03, -8.67773127e-03, -2.43979171e-02, -1.82511155e-02,
       -1.83602478e-02, -2.94229873e-02, 1.44206630e-02, 3.20372283e-02,
       1.87998638e-02, 1.33867478e-02, -3.72035243e-03, -8.17052089e-03,
       -1.40725281e-02, -6.97296951e-03, -4.80210921e-03, 1.65937673e-02,
       5.40233701e-02, 3.88436429e-02, 2.32323688e-02, 2.72576394e-03,
       -1.61438677e-02, -1.85650717e-02, -1.60039645e-02,
       -2.20573284e-02, 4.30024276e-03, 3.72878090e-02, 2.18466129e-02,
       -4.47888952e-03, -1.13576101e-02, -9.58942622e-03,
       -1.10272793e-02, -4.56313090e-03, -1.67383403e-02, 8.38708039e-03,
       1.19580952e-02, -1.53368721e-02, -2.63333376e-02, -2.66724415e-02,
       -1.24531481e-02, -1.45742297e-02, 9.37533379e-03, -3.53036192e-03,
       2.03907024e-02, 4.37788144e-02, 2.75334027e-02, 1.19129429e-02,
       -8.35456699e-03, -1.05437236e-02, -7.83921313e-03,
       -6.94771623e-03, -7.39837345e-03, 4.49172175e-03, 9.94562265e-03,
       -1.19617805e-02, -2.30111312e-02, -2.98273880e-02,
       -2.02057753e-02, -2.31026253e-03, 6.07398665e-03, 1.22211119e-02,
       8.57102405e-03, 2.27980930e-02, -2.13180247e-04, -1.23471543e-02,
       -1.69912763e-02, -1.08473590e-02, -1.82716995e-02, 8.48256890e-03,
       -7.74659356e-03, -1.77666370e-03, 1.26713971e-02, 3.97135131e-03,
       -9.39608458e-03, -2.04883926e-02, -2.74711009e-02,
       -3.10375877e-02, -8.11845623e-03, -1.49422195e-02, 1.52964368e-02,
       1.37313120e-02, -9.54806339e-03, -1.76415797e-02, -1.87835023e-02,
       -1.27880080e-02, 8.03125650e-03, 2.05517951e-02, 7.68887391e-03,
       5.43548772e-03, 1.99398082e-02, -1.47032226e-03, -8.27970076e-03,
       -1.53362248e-02, -2.08956916e-02, -1.31741194e-02, 8.28358997e-03,
       1.08004152e-03, -1.26152942e-02, -7.78730912e-03, -1.02414554e-02,
       -1.37479221e-02, -1.52086671e-02, -2.64578070e-02,
       -2.04710867e-02, -4.16500680e-03, -1.98210701e-02,
       -1.57476757e-02, -1.10024968e-02, 2.30031717e-03, 6.71020988e-03,
       5.79449395e-03, -1.99747621e-03, -8.26060399e-03, 3.02071171e-03,
       -1.31314285e-02, 7.17104366e-03, 9.23964661e-03, -2.45599938e-03,
       -5.20468783e-03, -4.53120749e-03, -1.92812551e-02,
       -5.40057523e-03, 1.07364897e-02, -2.10190518e-03, -3.68478452e-03,
       1.01579111e-02, 1.91794261e-02, 1.53166233e-02, -1.44837925e-03,
       5.12276217e-03, 1.63133291e-03, 1.50002735e-02, 1.40644442e-02,
       -2.06519701e-02, -5.92206977e-03, 1.00787880e-03, -8.03078074e-05,
       -2.18496658e-03, -8.74541141e-03, -1.91359557e-02,
       -7.30025815e-03, -1.51593853e-02, -7.28247920e-03, 5.62059402e-04,
       -9.19549202e-04, 7.35091465e-03, -7.00021815e-03, 7.03885825e-03,
       -1.69851352e-02, -6.60747988e-03, -1.41481645e-02,
       -9.82499914e-04, 1.36479726e-02, 2.35454720e-02, 1.89348888e-02,
       -5.10993134e-03, -1.35458391e-02, -1.86097790e-02,
       -3.67642799e-03, -6.54580398e-03, 2.58852672e-02, 2.17182208e-02,
       1.28168752e-02, 6.90029096e-03, -3.19728395e-03, 3.84027633e-04,
       -1.32816713e-02, 1.90133904e-03, 1.10129463e-02, -8.25687498e-03,
       -7.93115515e-03, -7.33478460e-03, 7.86807388e-04, -3.57574713e-03,
       6.16462342e-03, -1.33845676e-02, 6.11404714e-04, 1.52105745e-03,
       -1.93348024e-02, -1.35197220e-02, -1.28130615e-02,
       -6.71141362e-03, -3.52953700e-03, -4.69448697e-03,
       -1.15901679e-02, -3.03159817e-03, -1.32223861e-02, 1.12619884e-02,
       1.84523016e-02, 2.71115568e-03, -9.01048444e-03, -1.24834161e-02,
       -6.06377050e-03, -7.03776302e-03, 1.10034253e-02, 2.30680611e-02,
       -5.27645135e-03, 2.49134582e-02, 6.04780950e-03, -3.92454583e-03,
       -7.66274799e-03, -2.49756919e-03, 2.00437452e-03, 1.48931956e-02,
       8.71220138e-03, -2.20794566e-02, -7.10067619e-03, -5.10315178e-03,
       -6.22593740e-04, -5.41493436e-03, -1.92237378e-03,
       -1.32524390e-02, -1.70389237e-03, -2.52265967e-02,
       -1.12676686e-02, -1.65682961e-03, 6.34914683e-03, 3.53848538e-03,
       2.66525918e-03, -4.20658896e-03, -1.17124738e-02, 3.45578184e-03,
       -1.26055870e-02, -8.51209462e-03, 3.94803733e-02, 2.15349849e-02,
       7.50361988e-03, 2.73317448e-04, 2.66213925e-03, -8.25289055e-04,
       1.61602348e-02, -1.20661017e-02, -4.97067021e-03, 3.28644477e-02,
       3.24370116e-02, 1.70038156e-02, 7.18625821e-03, -7.19242170e-03,
       2.43914383e-03, 2.99872854e-03, -8.15781392e-03, -5.21319080e-03,
       9.90457181e-03, 1.46197472e-02, 1.15183089e-02, 9.30814911e-03,
       -1.41265262e-02, -1.10171363e-02, -4.84980270e-03,
       -1.57915652e-02, -1.73976123e-02, -1.65661186e-04,
       -8.46862141e-03, 1.15453098e-02, 9.98265576e-03, -1.66727789e-02,
       -5.99174388e-03, -1.02832299e-02, -2.39345357e-02, 1.02171637e-02,
       2.50423905e-02, 1.73802376e-02, 5.13245864e-03, 3.51493224e-03,
       -1.37850456e-02, 5.74453792e-04, 3.39479977e-03, 1.19361992e-03,
       2.71221390e-03, 9.46741260e-04, -3.13501596e-03, 1.10437190e-02,
       5.84577629e-03, -6.13398990e-03, -2.34750938e-03, -3.22657544e-03,
       7.78875838e-04, -2.79201139e-02, -3.00345127e-03, -1.25735570e-02,
       6.25566638e-04, 1.17830476e-02, -7.95095041e-03, -5.58190607e-03,
       -7.29922857e-03, -2.43000593e-02, -2.76185405e-02,
       -8.51948094e-03, -2.22759161e-04, 3.65096581e-04, 2.65100301e-04,
       -3.37943225e-03, -5.94430603e-03, 5.50615648e-03, -1.87692568e-02,
       -4.11643879e-03, 1.29576148e-02, 3.00345733e-03, 4.72040474e-03,
       4.15550871e-03, -1.23896301e-02, 6.94699702e-04, -5.04287099e-03,
       8.06938019e-03, -1.50140859e-02, 1.89123731e-02, 1.68909710e-02,
       4.93852654e-03, -7.11820507e-03, -7.80726783e-03, 3.50076798e-03,
       9.05407034e-03, -3.85440071e-03, -1.50234047e-02, 8.06981139e-03,
       -6.60473830e-04, -6.18642196e-03, -1.05378777e-02,
       -8.35691020e-03, 7.78077589e-03, 1.34485168e-02, -1.75779220e-02,
       -1.01854717e-02, 6.78719161e-03, 5.32581331e-03, -7.19583035e-03,
       8.04748852e-03, -1.71057899e-02, 9.29065980e-03, -1.52216060e-03,
       -2.26631798e-02, -1.60632618e-02, 3.28716934e-02, 3.09867021e-02,
       1.77298486e-02, 2.29112469e-04, -3.37869977e-03, 1.63540971e-02,
       1.92850903e-02, -2.24767551e-02, -1.97317228e-02, 2.19726041e-02,
       2.57344618e-02, 1.16205262e-02, 8.87287408e-03, -1.06446259e-02,
       1.61450990e-02, 7.18287099e-03, -2.66592167e-02, 2.99761235e-03,
       1.70409400e-02, 1.48093272e-02, -9.10593383e-03, -4.24962817e-03,
       -1.05273183e-02, 5.78416092e-03, 2.61392997e-04, -1.35196801e-02,
       6.39473507e-03, 2.37884428e-02, 1.59578472e-02, 7.51026208e-03,
       -3.58582521e-03, -4.41714795e-03, 5.68287820e-03, 8.31960794e-03,
       -2.18669767e-03, -2.07831711e-02, -7.43689016e-05, 1.19395824e-02,
       -7.93472398e-03, 6.30464032e-03, -3.88293085e-03, 5.06391050e-03,
       -6.74750935e-03, -2.87305582e-02, -2.34584063e-02,
       -8.01879633e-03, -5.97393233e-03, -1.36185652e-02,
       -1.87506946e-03, -4.80825407e-03, 7.13261357e-03, -2.21145572e-03,
       -2.55593136e-02, -1.20077259e-03, 2.19418146e-02, 8.95632803e-03,
       7.96238147e-03, -2.07521277e-03, 5.96280582e-03, 1.13158058e-02,
       7.78674381e-03, -9.07746609e-03, -1.90639403e-02, 5.78613766e-03,
       -1.49889272e-02, -7.02924700e-03, 3.14419740e-03, 3.50520993e-03,
       1.74065288e-02, 1.12655770e-03, -1.62067357e-02, -4.06370638e-03,
       8.32114369e-04, 1.08809583e-03, 3.67166102e-03, -9.44028236e-03,
       7.61794066e-03, 1.63303148e-02, 8.98728333e-03, -1.79070532e-02,
       -1.45038953e-02, 6.20537146e-04, -2.32275203e-02, -8.98575317e-03,
       1.48109524e-02, 2.02658959e-02, 3.08399647e-02, 3.54200508e-03,
       -1.59629490e-02, -9.16908681e-03, -1.25237927e-03,
       -2.42680758e-02, -1.33313723e-02, -6.09485945e-03, 3.45846149e-03,
       1.43367825e-02, 2.07463838e-03, -6.46645296e-03, -1.12614622e-02,
       -7.84172211e-03, -2.32437421e-02, 3.16879689e-03, 1.40736820e-02,
       5.93088148e-03, 1.53441066e-02, 2.68427609e-03, -6.35896530e-03,
       6.59718923e-03, 4.35260404e-03, -2.47939751e-02, -1.31548718e-02,
       -3.80567741e-03, 1.45030627e-03, 2.42632106e-02, 3.80655215e-03,
       5.28495107e-03, 1.16759129e-02, -1.94885989e-03, -1.77899953e-02,
       2.62163207e-03, 1.01358071e-02, 1.34867653e-02, 1.48098534e-02,
       5.89528820e-03, 1.06691178e-02, -4.55007982e-03, -2.43966375e-02,
       -3.20841558e-02, -3.36991227e-03, 6.95091439e-04, -7.02245347e-03,
       -6.86430279e-03, -7.87723530e-03, 3.63828614e-03, 1.46464538e-02,
       -7.50873564e-03, -1.12508424e-02, 5.13132056e-03, -1.85719281e-02,
       -2.22733654e-02, -1.07703293e-02, -5.99198102e-04, 1.26718767e-02,
       -2.95706093e-03, -1.38311824e-02, -2.72726882e-02,
       -2.21306947e-03, 7.09920714e-04, 2.67349114e-03, 3.97761166e-03,
       -5.07135876e-03, 5.60087059e-03, 1.94365717e-02, -1.31097790e-02,
       -1.66723486e-02, -6.29210472e-03, -2.36688033e-02,
       -5.09562669e-03, 7.29159545e-03, 5.00913756e-03, 1.99788716e-02,
       4.48502088e-03, -6.88343495e-03, 4.97394148e-03, 3.97936255e-03,
       -4.03418951e-03, -8.31442513e-03, -8.77832621e-03,
       -1.68600623e-02, 6.39382331e-03, -1.62885233e-03, 2.86844955e-03,
       -2.30394560e-03, 6.31939620e-03, -1.34773962e-02, 7.84806628e-03,
       -1.24439877e-02, -2.63543501e-02, -6.47245487e-03, 2.03843880e-02,
       -1.88831950e-03, 3.60140880e-03, -5.70435550e-05, -5.31660044e-04,
       -9.63205937e-03, 5.94470464e-03, -1.31639149e-02, 1.98577400e-02,
       3.59196868e-03, 3.14278295e-03, -3.58883198e-03, 1.24847637e-02,
       -2.16694158e-02, -3.66140087e-03, -1.14275608e-02,
       -2.30692085e-02, -4.43820329e-03, -1.15072792e-02, 1.54099967e-02,
       4.95707383e-03, 8.19355436e-03, 3.15173343e-03, 1.50138987e-02,
       -6.46588067e-03, -1.35346539e-02, -1.40986703e-02,
       -2.54767248e-03, 1.52334729e-02, 4.06496692e-03, 3.99952568e-03,
       2.96926359e-03, 1.72707643e-02, -7.97245465e-03, 1.18073344e-03,
       -1.91995986e-02, -6.05947757e-03, 3.92600475e-03, -7.94736762e-03,
       9.59595758e-03, -1.27874836e-02, 1.21620782e-02, -1.47374980e-02,
       -2.13524979e-02, -1.48154348e-02, 5.91053255e-03, 5.63961966e-03,
       3.46306758e-03, 2.07375269e-03, -3.69841210e-03, 1.59923807e-02,
       -1.21924356e-02, -1.61859766e-02, -7.52489641e-03,
       -2.00119498e-03, 1.15365041e-02, 4.65416443e-03, -3.81688401e-03,
       1.36275357e-03, 9.10783652e-03, 8.08872283e-05, 3.20914527e-03,
       -1.44492136e-02, 1.11235287e-02, 8.98182206e-03, 2.15469357e-02,
       1.89485389e-03, -6.62443507e-03, 3.59761971e-03, -4.36868239e-03,
       -7.82977324e-03, -2.90396321e-03, 1.67870764e-02, 1.33774895e-02,
       8.15175474e-03, -5.10798069e-03, -6.92527927e-03, 1.81168504e-03,
       -7.21215503e-03, -1.04931351e-02, -3.30956565e-04,
       -5.36091533e-03, 1.05166137e-02, 1.88263990e-02, 1.86926257e-02,
       -1.81579664e-02, 2.93051451e-03, -3.37674166e-03, -8.64204764e-03,
       -1.20493537e-02, -5.78854838e-03, -3.98804853e-03, 6.07094122e-03,
       -6.75009144e-03, -7.91820325e-03, -9.87979118e-03,
       -2.08195020e-02, -2.10449938e-02, -2.03266572e-02, 1.83175150e-02,
       2.74179913e-02, 1.00066019e-02, 4.57441481e-03, -1.48970103e-02,
       -9.75492131e-03, -1.85256824e-02, -5.20327641e-03, 4.96844575e-03,
       -2.53323037e-02, 1.56990234e-02, 1.92404985e-02, 3.10170073e-02,
       -6.47408795e-03, 1.33413833e-03, -1.25348251e-02, -2.61971354e-02,
       -2.43755989e-02, 1.08926231e-02, 3.76175307e-02, 2.42373962e-02,
       2.67476849e-02, -8.56926199e-03, -1.92455962e-04, -2.23771180e-03,
       -5.30932471e-03, 1.67424381e-02, 3.89716285e-03, 8.06982350e-03,
       -8.68240092e-03, -1.25702303e-02, -1.76161621e-02,
       -1.56003283e-02, -2.41498072e-02, -2.83455430e-03,
       -2.24559451e-03, -2.45667202e-03, 2.21802052e-02, 1.33918319e-02,
       1.75802540e-02, -1.20896632e-02, -3.41899246e-02, -3.03950924e-02,
       -1.54316304e-02, -1.35283638e-02, 1.18896030e-02, 2.79996544e-02,
       1.44408215e-02, 1.24338446e-02, 7.12648081e-03, -3.01448425e-04,
       2.31091486e-04, -1.00705465e-02, 1.35115711e-02, 1.88087390e-04,
       3.49762291e-02, 3.71114910e-02, 2.58218627e-02, -2.97063403e-03,
       -1.05135730e-02, -4.73072799e-03, -1.19611323e-02, 4.64101777e-06,
       -2.16851919e-03, 4.20141332e-02, 4.43492085e-02, 3.45712043e-02,
       -1.02217961e-02, -3.29456404e-02, -4.23328690e-02,
       -2.80422587e-02, -2.69462466e-02, -1.03459414e-03, 4.20894846e-02,
       3.83271463e-02, 2.88600381e-02, -1.95156895e-02, -3.59417051e-02,
       -4.29451242e-02, -2.64489651e-02, -4.17882986e-02,
       -1.73051767e-02, 4.23053987e-02, 5.62989973e-02, 3.52951325e-02,
       -1.49641819e-02, -1.28611112e-02, -1.31037021e-02,
       -1.34785641e-02, -1.82998199e-02, -2.76013985e-02, 2.36897934e-02,
       3.42637450e-02, 2.94988304e-02, -1.60178449e-02, -2.51295641e-02,
       -1.92142017e-02, -2.74961926e-02, -3.84923182e-02, 2.08828617e-02,
       3.58894803e-02, 1.43732224e-02, 9.33391694e-03, -3.31386141e-02,
       -1.62090007e-02, -4.41627670e-03, 4.86888736e-03, -1.64515208e-02,
       5.64069394e-03, -3.45220033e-04, -2.68334076e-02, -1.55411558e-02,
       -4.13720421e-02, -1.30928876e-02, 1.65282818e-03, 1.05661340e-02,
       1.81699044e-03, 7.40804058e-03, 1.38306934e-02, -4.71439242e-04,
       -2.62955844e-04, -3.94505672e-02, -6.89123245e-03, 8.83981306e-03,
       1.10649318e-02, -8.92078876e-03, 9.46204644e-03, -4.41399729e-03,
       -2.84958389e-02, -2.10407730e-02, -3.72483544e-02,
       -1.11708632e-02, -1.24474661e-02, 1.89603418e-02, 1.59290694e-02,
       5.88115817e-03, 1.49742421e-03, -2.85914578e-02, -2.36979816e-02,
       -3.20781320e-02, -1.31246941e-02, 6.38814736e-03, 1.63288042e-02,
       2.16905097e-03, -6.20440207e-03, 3.34721920e-03, -2.04535015e-02,
       -1.73840728e-02, -2.23205741e-02, -2.04217285e-02,
       -6.00554049e-03, 2.55243387e-02, -5.48439566e-03, -1.01689038e-04,
       -5.16116200e-03, -2.97505129e-02, -2.81430446e-02,
       -3.16166766e-02, -1.11345742e-02, -4.94283205e-03, 1.15573341e-02,
       4.66752099e-03, -1.08233411e-02, -7.52145099e-03, -6.34758873e-03,
       -1.20079890e-02, -1.63877606e-02, -1.04099829e-02, 1.95072684e-03,
       1.38103096e-02, -1.72276818e-03, -1.04471548e-02, 6.65204274e-03,
       -9.03909467e-03, -1.16324639e-02, -1.21481298e-03,
       -8.26960430e-03, 2.27154884e-03, 1.71620026e-02, -1.43119143e-02,
       -2.20540762e-02, 1.81059204e-02, 9.95943975e-03, -3.26752872e-03,
       -1.15973474e-02, -3.97696858e-03, 6.53648330e-03, 8.97416321e-04,
       -8.34793225e-03, -3.23953107e-02, 3.08290916e-03, 9.07825120e-03,
       -5.91002824e-03, 5.70771564e-03, -4.39548912e-03, -4.77793219e-04,
       -4.15305753e-04, -2.26126630e-02, -3.33251245e-02, 1.15492186e-02,
       1.02405930e-02, -7.12257111e-03, -3.64216068e-03, 1.02995411e-02,
       2.68873991e-03, -1.18152695e-02, -3.12940963e-02, -4.71959310e-03,
       2.78097950e-02, 1.81743819e-02, 4.84427297e-03, -1.71114728e-02,
       -2.36863587e-02, -8.43620393e-03, -6.43234293e-04, 2.94440251e-04,
       1.04945712e-02, 1.42299896e-02, -8.85547706e-05, -2.24904157e-02,
       -3.20021473e-02, -2.03122888e-02, -1.21606980e-02, 2.28228280e-03,
       1.48935651e-03, -9.29000974e-03, 2.44522765e-02, 4.51195985e-03,
       -5.92592312e-03, -1.47123970e-02, -7.96147902e-03, 2.27130530e-03,
       2.79472256e-03, -1.59562360e-02, -4.17944510e-03, 1.11351861e-02,
       -3.45582562e-03, -1.99816544e-02, -2.87734438e-02,
       -1.59476232e-02, -9.47988592e-03, 1.21972514e-02, -6.41434174e-03,
       6.92754006e-03, 2.00702827e-02, -4.04473115e-03, -2.93402169e-02,
       -3.32521871e-02, -1.52969314e-02, -1.03924433e-02, 1.48597257e-02,
       1.50516825e-02, 1.03328172e-02, 3.89560871e-02, 8.25692806e-03,
       -1.62385367e-02, -2.89646257e-02, -2.91082989e-02,
       -1.73564423e-02, 4.70591662e-03, 4.39904258e-03, -2.01300532e-03,
       1.57297868e-02, -1.39027822e-03, -2.16574669e-02, -2.67620869e-02,
       -1.68539137e-02, -1.15183145e-02, 1.39373997e-02, 1.23950941e-02,
       1.17155472e-02, 2.27793083e-02, -4.94114123e-03, -1.40244905e-02,
       -2.50764303e-02, -1.57771185e-02, -1.85663272e-02, 4.96935472e-03,
       1.18222255e-02, 6.35528751e-03, 4.55893241e-02, 1.66222695e-02,
       -1.06780566e-02, -2.92775091e-02, -2.49118824e-02,
       -4.28250479e-03, 1.78323034e-02, 4.16513685e-05, 1.56328660e-02,
       2.82657091e-02, 4.00015898e-03, -2.00138949e-02, -3.12729664e-02,
       -3.75125371e-02, -6.08141487e-03, 7.89209921e-03, 1.41784362e-02,
       7.26497825e-03, 3.71082351e-02, 5.59473759e-04, -2.00613495e-02,
       -3.80562693e-02, -2.94322744e-02, -7.04527088e-03, 5.49146280e-05,
       2.81317462e-03, 2.12241597e-02, 2.16098838e-02, -6.89626904e-03,
       -3.90995331e-02, -5.27539887e-02, -4.99653853e-02,
       -1.58695765e-02, 2.04229122e-03, 9.01329983e-03, 3.03402431e-02,
       1.82990432e-02, -6.11144071e-03, -2.46273410e-02, -4.26829048e-02,
       -3.72983292e-02, -7.77117023e-03, 3.96883162e-03, 1.64938606e-02,
       2.36937627e-02, 5.33321779e-03, -1.10555692e-02, -1.45591162e-02,
       -3.30432765e-02, -2.82038674e-02, -6.55730302e-03, 2.40626233e-03,
       2.33156793e-02, 2.07160618e-02, 1.48694087e-02, -1.56714972e-02,
       -3.75376679e-02, -4.90145795e-02, -5.08630164e-02,
       -2.18625683e-02, 9.06269345e-03, 1.93481985e-02, 2.39374656e-02,
       3.02752052e-02, 3.43364221e-03, -2.23481338e-02, -4.14697155e-02,
       -3.78672965e-02, -1.36177503e-02, 1.30389519e-02, 2.40371861e-02,
       9.52864345e-03, -7.59312126e-04, -4.90945531e-03, -2.06518658e-02,
       -2.37942003e-02, -3.24386656e-02, -1.16076954e-02,
       -2.14500120e-03, 1.10447761e-02, -2.28936854e-03, 1.44999316e-02,
       7.88397563e-04, -1.87449083e-02, -1.94154643e-02, -1.70625839e-02,
       -4.70941712e-04, 3.84773826e-03, -3.17046442e-03, 1.31201874e-02,
       1.30663021e-02, -4.66540596e-03, -1.98822916e-02, -2.58845221e-02,
       -3.83949205e-02, -1.17396479e-02, 2.60746013e-03, 1.31092016e-02,
       5.76805184e-03, 1.14539023e-02, 9.97387245e-03, -8.06797668e-03,
       -2.41819136e-02, -1.63204428e-02, -1.49434409e-03, 1.21813836e-02,
       4.39554825e-03, -2.58370917e-02, 1.49399443e-02, 1.04978280e-02,
       -5.28334640e-03, -1.29513983e-02, 8.77442490e-03, 2.19436027e-02,
       1.65713262e-02, -2.30546538e-02, -3.61932106e-02, 1.00395686e-04,
       1.03273829e-02, -1.02713807e-02, -1.14637082e-02, 3.16728279e-03,
       1.26996404e-02, 5.58518898e-03, -4.02079001e-02, -1.02082128e-02,
       2.20738538e-02, 2.19395477e-02, -5.23382751e-03, -1.46415448e-02,
       1.33711938e-02, 2.71994062e-02, 2.60435753e-02, 2.84398836e-03,
       -1.64586827e-02, 1.49881495e-02, 1.43647548e-02, -4.00899816e-03,
       4.03871434e-03, 2.30473578e-02, 2.93121058e-02, 3.79047021e-02,
       -1.81888510e-02, -7.94006791e-03, -1.19047926e-03, 1.25849154e-02,
       -5.08831069e-03, 1.21642258e-02, 6.66409126e-03, 1.15956021e-02,
       -2.08875025e-03, -2.09892318e-02, -2.24293824e-02,
       -1.98586080e-02, -1.46867083e-02, -1.82717182e-02,
       -1.03601231e-03, -6.74209208e-04, 6.05712365e-03, -7.91206770e-03,
       -2.50599273e-02, 1.76856946e-02, 1.33935427e-02, 1.06693218e-02,
       7.01640220e-03, 2.69355234e-02, 3.26846428e-02, 1.79780945e-02,
       2.87460033e-02, -7.11094867e-03, -7.87566230e-03, -1.13115273e-02,
       -1.16225248e-02, -8.82798526e-03, 8.21729563e-03, 3.37255560e-03,
       -1.54259037e-02, -1.14551876e-02, -1.91984717e-02,
       -1.39446650e-02, -1.15263732e-02, -1.59784704e-02,
       -7.68660160e-04, -9.47606191e-03, 9.18752607e-03, 1.59213990e-02,
       7.35967560e-03, -2.22046021e-02, -9.21078678e-03, 1.41584536e-03,
       -8.00774992e-03, -4.05202899e-03, 1.79455522e-02, 1.78134125e-02,
       2.87250523e-02, 8.41849390e-03, -1.55352112e-02, -1.19355144e-02,
       -5.47120348e-03, -1.22311674e-02, -2.73914961e-03,
       -9.23553947e-03, 4.66075508e-05, -2.63309362e-03, 1.54932088e-03,
       -1.45115387e-02, -7.45526457e-04, 4.52124327e-03, 7.05444859e-03,
       5.45077445e-03, 1.48873206e-03, -2.68274429e-03, 1.86375696e-02,
       2.51152907e-02, 1.41575024e-03, 3.01770191e-03, -2.85315048e-03,
       -1.56181511e-02, -2.31973883e-02, -8.29477329e-03,
       -1.63081288e-02, 1.05509935e-02, -2.13247328e-03, -4.21703840e-03,
       1.20773735e-02, 1.24178722e-03, -1.99742466e-02, -1.54383993e-02,
       3.64100840e-03, 1.71398465e-03, 2.09948095e-03, 1.29412953e-03,
       3.89765436e-03, 1.15078399e-02, 9.83390398e-03, 7.99354352e-03,
       -2.36468768e-04, -1.06757097e-02, -3.31428945e-02,
       -1.11220137e-03, 1.76052693e-02, 8.26033391e-03, 1.07393134e-02,
       1.93847306e-02, 1.48974229e-02, 2.04339623e-02, 8.31250940e-03,
       -1.76383730e-03, 1.69826602e-03, 6.69616507e-03, 2.23039393e-03,
       7.53680896e-03, -2.38802284e-03, -2.78120395e-02, -2.49570832e-02,
       -1.37522696e-02, 6.88624204e-05, -4.09927918e-03, -9.66081425e-05,
       5.89709217e-03, 1.79045610e-02, 1.31640828e-03, -2.86022201e-02,
       -2.44422592e-02, -3.80055830e-02, -6.39618281e-03, 2.45814701e-03,
       5.25604188e-03, 1.90393347e-02, 2.10060943e-02, 1.31358551e-02,
       -7.99211301e-03, -1.57206301e-02, -1.23796351e-02,
       -1.13870213e-02, -9.63464566e-03, -1.22310431e-03, 3.29833623e-04,
       2.50584483e-02, 1.46421781e-02, -1.42666213e-02, -2.66847964e-02,
       -1.53303370e-02, -6.70895632e-03, 5.22851292e-03, 7.57826120e-03,
       1.20134596e-02, 2.34985743e-02, -1.56262569e-04, 1.49594538e-03,
       -6.62176497e-03, 4.45161387e-03, -8.64129886e-03, 5.20712929e-03,
       -1.74337942e-02, 1.06519889e-02, -5.56061557e-03, 5.08605316e-03,
       -4.67456691e-03, 7.57313753e-03, -1.24999462e-03, 1.57020171e-03,
       6.42266648e-04, -2.17158403e-02, -1.93444453e-02, 2.63461508e-02,
       9.65149235e-03, 1.14174876e-02, -1.37152569e-03, 2.10960116e-03,
       1.07116124e-03, 3.17496550e-03, -8.32039397e-03, 7.54212448e-03,
       2.90858047e-03, 1.71786193e-02, 2.98384507e-03, -5.47025260e-03,
       -7.27627007e-03, 1.85617693e-02, 9.89251770e-03, 2.41147098e-03,
       -1.54802073e-02, -3.04551655e-03, 2.73520011e-04, -8.86346307e-03,
       6.93725096e-03, 2.56509311e-03, 1.47714410e-02, -1.03269909e-02,
       -2.24354602e-02, -1.86623298e-02, 1.38305244e-03, -5.80544258e-03,
       -8.24616756e-03, -5.58445463e-03, 2.14037136e-03, 2.32164059e-02,
       -1.09094903e-02, -1.49956876e-02, -5.91955660e-03,
       -5.39866416e-03, 3.09640565e-03, -8.31765868e-03, 7.54613371e-04,
       -1.68007519e-02, 1.46685047e-02, 9.91920754e-03, -1.73002016e-04,
       -7.37358583e-03, -1.09331682e-03, -4.75300429e-03,
       -2.20661312e-02, -4.80678864e-03, 7.53186923e-03, 2.49783956e-02,
       5.95388468e-03, -4.80724615e-04, -3.41788889e-03, 6.26528217e-03,
       -9.38096922e-03, 1.82024157e-03, -4.08884778e-04, 2.50121229e-03,
       6.63021207e-03, -1.21890903e-02, -2.11397689e-02, 3.42547987e-03,
       -1.21475533e-02, -3.79850715e-03, 1.61090400e-02, 3.04520391e-02,
       7.62478728e-03, 1.48141449e-02, -5.79402409e-03, -2.27082353e-02,
       -2.11706143e-02, 1.54353399e-03, -9.98293050e-03, -1.89708620e-02,
       -9.55532491e-03, 1.39403983e-03, 8.50986596e-03, 1.69517600e-03,
       -4.02201340e-03, 1.04230305e-03, -3.98001634e-04, 4.52377787e-03,
       7.22881779e-03, 1.76824611e-02, 1.89421102e-02, 2.19308957e-02,
       9.78383981e-03, -1.23591367e-02, -1.48632508e-02, -4.68931869e-02,
       -2.04277039e-03, 1.07228681e-02, 3.94537672e-02, 1.36280786e-02,
       1.67357828e-02, -1.35591570e-02, -3.77261080e-02, -4.80642691e-02,
       -8.09932034e-03, 1.57536119e-02, 2.45760754e-02, 3.70123163e-02,
       1.62747838e-02, 2.03528292e-02, -5.18280407e-03, -2.09789854e-02,
       -7.15672504e-03, -3.34607810e-02, -2.23019850e-02,
       -2.79311463e-03, 1.89626664e-02, 1.68339210e-03, 2.59094983e-02,
       9.64112021e-03, -1.45033784e-02, -4.78200763e-02, -2.59137875e-03,
       -8.81049200e-04, 1.77055057e-02, 2.20868066e-02, 1.12745529e-02,
       1.76268276e-02, 1.53588806e-03, -1.21355699e-02, -2.25019827e-02,
       -5.14065567e-03, 2.21689604e-02, 2.21278723e-02, 1.97081286e-02,
       4.93422942e-03, 3.95698799e-03, -4.55877464e-03, -1.73049793e-02,
       -5.27939014e-03, -1.38890306e-02, 2.88522802e-02, 2.61048377e-02,
       1.20332157e-02, -1.72580387e-02, -3.78469285e-03, -1.28923377e-04,
       -7.87717290e-03, -1.68639030e-02, 4.84592840e-03, 2.17209030e-02,
       2.98011452e-02, 1.73673816e-02, -9.93393082e-03, -1.63754728e-02,
       -2.28479113e-02, -1.63006485e-02, -8.27744976e-03, 3.46967694e-03,
       2.77149417e-02, 2.84315273e-02, 1.19237462e-02, -1.05882799e-02,
       -1.70262698e-02, -6.38098596e-03, -1.28807062e-02,
       -1.97573416e-02, -2.15679724e-02, 3.12431362e-02, 4.29980196e-02,
       2.60824952e-02, -4.32011951e-03, 2.49603437e-03, 1.83873600e-03,
       2.35019787e-03, -2.32265592e-02, -2.63916906e-02, 7.66204018e-03,
       2.41897926e-02, 2.08062530e-02, -4.78266086e-03, -1.16987349e-02,
       -1.22757023e-02, -1.93535760e-02, -2.64585540e-02,
       -1.40850022e-02, 2.26217471e-02, 2.65568141e-02, 5.52223669e-03,
       -1.08540468e-02, 7.66595220e-03, 1.14162639e-02, -4.79691289e-03,
       -3.13443169e-02, -2.25447807e-02, -1.44605769e-03, 1.01675708e-02,
       5.01337810e-04, 1.06715057e-02, 8.11487902e-03, -5.46893757e-03,
       -2.66309697e-02, -3.81238945e-02, 9.16086356e-05, 1.27990283e-02,
       1.29966224e-02, 1.04532503e-02, -1.92986708e-02, -6.03717426e-03,
       8.94797500e-03, 1.29820202e-02, -6.82222610e-03, 1.03624500e-02,
       6.28918409e-03, -8.97671189e-03, -1.53779127e-02, -2.18974575e-02,
       4.09711647e-04, -4.13913978e-03, 7.38991005e-03, 8.73958506e-03,
       -1.06101930e-02, 9.71805118e-03, 1.36463819e-02, 2.83695501e-03,
       -7.38985045e-03, 2.89666816e-04, 5.61910542e-03, 5.48540521e-03,
       -1.15935486e-02, 3.55121028e-03, 4.38761106e-03, -4.58608475e-03,
       -1.26088392e-02, -3.07350885e-02, -2.41128774e-03,
       -6.90327538e-03, 8.86842515e-03, 8.51290487e-03, -5.89190796e-03,
       2.30702758e-03, -5.64018451e-03, -1.34759145e-02, -1.64800733e-02,
       4.03744169e-03, -1.77518313e-03, 6.83885021e-03, 2.30180379e-03,
       -2.58818753e-02, 7.23943114e-03, 1.89832542e-02, 5.58290724e-03,
       5.16319764e-04, 6.96138199e-03, 8.21862090e-03, 4.90246282e-04,
       -2.20438689e-02, 1.21793106e-04, -6.74913451e-03, -8.91705975e-03,
       -9.96496808e-03, -2.88241562e-02, 3.52997668e-05, -5.53074898e-03,
       6.33198908e-03, 9.76058282e-03, -1.55569902e-02, 8.98372754e-03,
       1.53449792e-02, 4.31014138e-04, -1.02465199e-02, 1.02271754e-02,
       8.42428301e-03, 5.52281179e-03, -1.37178954e-02, -5.49651198e-02,
       -1.88758562e-03, 1.65818054e-02, 7.75294704e-03, 1.73807889e-02,
       4.70308727e-03, 3.60203587e-04, -1.71234850e-02, -5.40101826e-02,
       -5.63281998e-02, 5.18183969e-03, 1.16257723e-02, 5.52027253e-03,
       3.73293413e-03, 1.71889160e-02, 8.89736135e-03, -1.41381752e-02,
       -5.63019253e-02, -4.86354269e-02, 5.14079642e-04, 1.78039055e-02,
       2.10255217e-02, 1.08713731e-02, 2.06546560e-02, 1.23829283e-02,
       -1.39079476e-02, -4.92702313e-02, -5.54902479e-02,
       -5.28197875e-03, 1.46852741e-02, 2.48728935e-02, -4.68855444e-03,
       1.53256999e-02, 1.25475070e-02, -1.56663973e-02, -5.46628386e-02,
       -3.20889540e-02, 1.15180807e-02, 1.35908956e-02, 1.55765528e-03,
       3.48641002e-03, 8.02766532e-03, 5.45146130e-03, -2.41182838e-03,
       -3.90464701e-02, -1.44220041e-02, 3.28403129e-03, 2.28934782e-03,
       1.01003572e-02, -6.95687672e-03, -7.39753759e-03, -8.01234506e-03,
       2.04273849e-03, -2.24360153e-02, -4.63648140e-02, 2.27530790e-03,
       1.26512498e-02, 1.39987431e-02, -5.55032864e-03, 4.70486702e-03,
       -9.40492610e-04, -9.02612880e-03, -4.88303825e-02,
       -1.80323534e-02, 1.00714732e-02, 6.76159887e-03, 9.99252964e-03,
       -1.47467777e-02, 2.18578218e-03, -1.77860551e-03, -8.76108184e-03,
       -3.22726257e-02, -3.93349538e-03, 1.20749623e-02, -3.90564295e-04,
       -7.34802941e-03, -1.31304711e-02, -1.35707110e-02,
       -7.95733277e-03, 2.05605407e-03, -5.41947084e-03, 1.88829172e-02,
       2.34337412e-02, -5.90273831e-03, -1.59335937e-02, -2.24759299e-02,
       -1.03473477e-02, -1.48100723e-02, 2.74125399e-04, 8.02148879e-03,
       -4.41349670e-03, 1.30250836e-02, 1.71557174e-03, 6.14865171e-03,
       -1.54281138e-02, -1.49667077e-02, -7.96659442e-04, 8.69746786e-03,
       -1.07061984e-02, -5.20489644e-03, 1.64843444e-02, -1.10801207e-02,
       -1.11737587e-02, -2.19186097e-02, -1.61909424e-02,
       -1.15042552e-02, 4.56983829e-03, 8.94423481e-03, 1.82916522e-02,
       4.38208804e-02, 1.41316559e-02, -1.44898957e-02, -3.03037297e-02,
       -1.88327543e-02, -9.74649098e-03, -5.19261346e-04, 5.70838386e-03,
       3.42049706e-03, 2.07504146e-02, -4.21236875e-03, -3.74295115e-02,
       -3.81633118e-02, -4.32664268e-02, -1.61570907e-02,
       -5.79541130e-03, 3.64037440e-03, 3.69598111e-03, 2.28485335e-02,
       -8.99130199e-03, -2.37964336e-02, -3.10589708e-02,
       -1.98203661e-02, -1.31830517e-02, 1.50407525e-02, 1.37552964e-02,
       1.15287658e-02, -7.19843956e-04, -2.61084102e-02, -4.82394025e-02,
       -4.92482744e-02, -4.10334356e-02, -8.96909088e-03, 2.92078406e-02,
       1.75723918e-02, 1.22326948e-02, 1.28447656e-02, -1.31644811e-02,
       -4.22493592e-02, -4.02042717e-02, -4.51262370e-02,
       -1.90061182e-02, 9.81404539e-03, 1.00446595e-02, 1.55331781e-02,
       2.21420750e-02, 4.65436233e-03, -2.06193123e-02, -3.23933437e-02,
       -3.37589234e-02, -7.43221305e-03, 1.09323133e-02, 1.01972632e-02,
       1.39275370e-02, -8.83729663e-03, -3.48982476e-02, -5.69610484e-02,
       -4.50920612e-02, -3.39767039e-02, -1.46691594e-02, 3.13692018e-02,
       2.58628745e-02, 1.51508758e-02, 1.06814625e-02, -2.61488114e-03,
       -2.03432310e-02, -3.12548690e-02, -2.15715803e-02,
       -7.07133114e-03, 1.75715350e-02, 1.70940123e-02, -6.14780141e-03,
       1.03625394e-02, 7.24333338e-03, -8.66215769e-03, -2.54096948e-02,
       -3.56894247e-02, -9.90852248e-03, -3.61016835e-03,
       -1.59948447e-03, -3.71426973e-03, 8.65539443e-03, 1.75475068e-02,
       6.23289868e-03, -3.46475095e-02, -2.23663822e-02, -1.38119347e-02,
       1.16459187e-02, -6.22846233e-03, -1.55883431e-02, 2.22914526e-03,
       1.28988670e-02, -8.53390805e-03, -3.35575268e-02, -2.39853021e-02,
       -1.17086964e-02, -2.16281926e-03, -1.49072846e-02,
       -1.78067293e-03, 1.57208722e-02, 2.46810317e-02, 6.40679849e-03,
       -2.71959808e-02, -1.67719033e-02, -4.38417215e-03, 2.47271415e-02,
       2.47444562e-03, -1.53109236e-02, 9.94032435e-03, 1.54171791e-02,
       -7.06858409e-04, -1.92942861e-02, -4.34663706e-03, 6.40027691e-03,
       1.84432436e-02, -7.28500308e-03, -3.24882418e-02, 2.29149661e-03,
       8.57783016e-03, 9.42866597e-03, 6.37311116e-03, 1.85578465e-02,
       3.08503900e-02, 1.77813489e-02, -2.93261576e-02, 3.70635861e-03,
       2.29937043e-02, 2.14415751e-02, -3.45126935e-03, -1.49347056e-02,
       -8.26702919e-03, 7.09415087e-03, 2.94827465e-02, 5.13025187e-03,
       -1.79936495e-02, 4.44191601e-03, 7.72930542e-03, 1.10032652e-02,
       3.93038569e-03, 2.69487104e-03, 3.52061167e-02, 2.74484660e-02,
       -8.65653902e-03, -1.60477646e-02, 4.19314601e-04, 5.13858534e-03,
       6.95858942e-03, 2.84914188e-02, 3.39471772e-02, 2.02658083e-02,
       9.38078854e-03, -2.28572376e-02, -3.74873132e-02, -2.27578208e-02,
       -1.68934390e-02, -2.87337378e-02, 9.41178482e-03, -4.78326483e-03,
       -2.25509554e-02, -2.63270196e-02, -4.18954566e-02,
       -2.32901261e-03, 1.51801575e-03, 6.98274327e-03, 2.07987465e-02,
       3.52111235e-02, 1.76954232e-02, 3.08784246e-02, 3.00557986e-02,
       6.43454399e-03, -2.49083545e-02, -2.00244859e-02, -7.55494740e-03,
       -1.41171943e-02, 1.01931570e-02, -7.36529846e-03, -6.93077873e-03,
       -1.00246724e-02, -2.88719554e-02, -3.64355147e-02,
       -7.76290847e-03, -1.30667789e-02, -9.17216763e-03, 4.52762377e-03,
       3.10165202e-03, -4.53120982e-03, -1.86499453e-03, -2.48759538e-02,
       -2.06435900e-02, -1.38154801e-03, -1.38662644e-02, 3.43175558e-03,
       4.44061030e-03, -9.03292652e-03, 1.08248768e-02, 1.86892468e-02,
       -7.74063263e-03, -1.81389917e-02, -5.72793512e-03,
       -9.37987585e-03, -5.05057024e-03, 6.06146362e-03, 1.55499624e-02,
       1.16855605e-02, 6.99740276e-03, -2.81000696e-02, -7.09345192e-03,
       3.31719709e-03, -9.91613884e-03, 7.00098695e-03, 6.31868001e-03,
       6.47674873e-03, 2.04974320e-02, 1.66490823e-02, -1.39178941e-02,
       -5.21719409e-03, -1.07463857e-03, -1.73704047e-02, 2.75920075e-03,
       -1.22185396e-02, -2.80925930e-02, -1.35750622e-02, 1.28996400e-02,
       -5.38763998e-04, 2.41370802e-03, 1.15143042e-03, 8.87875067e-05,
       1.96013022e-02, 1.23873074e-02, -1.19610755e-02, -1.05405487e-02,
       -2.78561073e-03, 7.12059700e-05, -5.20847412e-03, 5.55755198e-03,
       -1.97117645e-02, 4.43759811e-04, -1.60408672e-02, -1.90986115e-02,
       -1.60019740e-03, 4.16598190e-03, 8.91105301e-05, 6.24855340e-04,
       5.60094230e-03, -5.65558067e-03, 1.54779721e-02, -5.78291994e-03,
       -7.56829930e-03, -3.42935091e-03, 3.92604619e-03, 1.11748967e-02,
       2.40180572e-03, 2.52321828e-03, -4.91841510e-03, -9.35263187e-03,
       -9.79852118e-03, -1.25862584e-02, -5.83016640e-03,
       -1.07420096e-02, 2.37386348e-03, 1.30187152e-02, 2.61442340e-03,
       -7.01034768e-03, -2.54999865e-02, -1.98922679e-03,
       -6.28620735e-04, 7.88971502e-03, -6.57342141e-04, 5.74696576e-03,
       1.88057497e-03, -9.08690225e-03, -1.83837377e-02, -1.27274999e-02,
       -3.32049504e-02, -1.19121019e-02, 4.38659126e-03, 1.01279384e-02,
       1.86358560e-02, 1.31150177e-02, -4.61953878e-03, -1.43667767e-02,
       -2.42300928e-02, -1.99622847e-02, -8.60306900e-03, 1.18680960e-02,
       1.47255007e-02, 1.89550705e-02, 1.01443417e-02, -3.94046423e-04,
       1.85921323e-03, -4.24230704e-03, 5.70056587e-03, 6.83089020e-03,
       -1.71261898e-03, -1.82779320e-02, -5.46287093e-03, 2.19604652e-03,
       5.44991205e-03, -2.03302829e-03, -7.63486000e-03, -1.85276233e-02,
       4.09853971e-03, -7.30460929e-03, -7.62328692e-03, -1.01784319e-02,
       1.26854738e-03, 4.25629504e-03, -4.26900294e-03, -3.17680882e-03,
       3.90334381e-03, 1.83111578e-02, 1.12909852e-02, -8.85274354e-03,
       5.53553319e-03, 4.98183724e-03, -2.28907587e-03, 7.74996355e-04,
       -7.33777939e-04, 7.53975566e-03, 1.54020975e-03, -1.63401745e-03,
       -1.07179713e-02, 7.23272422e-03, 1.45224703e-03, 1.00587532e-02,
       3.60944332e-03, 5.91024337e-03, -1.16028981e-02, 6.02201590e-06,
       -5.31432452e-03, 3.32851952e-04, -2.95091607e-03, -4.51948075e-03,
       -4.31615300e-03, -8.39080568e-03, -1.60306261e-03, 1.84353814e-02,
       8.11825972e-03, -3.51595134e-03, -4.34838235e-03, -7.87535589e-03,
       1.09985983e-02, 3.65097960e-03, 6.75597042e-03, 1.23194838e-02,
       1.45630557e-02, -4.96892212e-03, -9.88601334e-03, -2.44364515e-03,
       9.55659524e-03, -1.72745697e-02, -1.01289079e-02, -8.75804480e-03,
       4.79275361e-03, 2.69091781e-02, 9.79836751e-03, -1.00108655e-03,
       -6.40853494e-03, -4.97644255e-03, -1.29384699e-03,
       -5.17496606e-03, -1.64049808e-02, -6.44529378e-03, 7.95399491e-03,
       7.13426247e-03, 1.88438850e-03, 3.16894555e-04, -3.09462263e-03,
       7.41193723e-03, 2.44249357e-03, -9.95878689e-03, 7.46829296e-03,
       -7.85414502e-03, 1.23741291e-02, 1.10448273e-02, -2.48157303e-03,
       -8.68948642e-03, -1.61053110e-02, -1.77905969e-02,
       -1.02444617e-02, 7.52443913e-03, 2.12243162e-02, 2.01362018e-02,
       1.59297232e-02, 8.39473587e-03, -9.35423304e-04, -1.41090872e-02,
       -1.48790460e-02, -4.16228082e-04, 9.69569013e-03, -1.05710579e-02,
       3.10522201e-03, 1.28229214e-02, -1.24013063e-03, -1.23200957e-02,
       -1.10396114e-03, -1.60629619e-02, -1.21066778e-03, 8.48542247e-03,
       -5.35492087e-03, -2.59964028e-04, 4.03039763e-03, 1.60367675e-02,
       3.50729818e-03, 2.19685268e-02, 8.13607767e-04, 1.12904245e-02,
       9.05212387e-03, -2.33387458e-03, -1.47343474e-03, -1.80866302e-03,
       1.95287373e-02, 2.74735037e-02, -2.09542699e-02, -2.54557859e-02,
       -1.29261492e-02, -3.35652800e-03, -1.71255507e-02,
       -2.21718065e-02, -1.61388945e-02, -1.85506120e-02,
       -9.40401200e-03, 3.70396156e-04, -2.33512130e-02, -1.58263333e-02,
       -1.72460172e-03, -1.22157475e-02, -6.96899719e-04,
       -9.67606809e-03, -5.67589328e-03, 1.94180217e-02, 2.79741529e-02,
       1.85227282e-02, 2.47802325e-02, 8.70821066e-03, -3.46291065e-03,
       -1.38428938e-02, -1.98555514e-02, -6.38028653e-03, 2.56649740e-02,
       1.50658954e-02, 8.10983311e-03, 1.58172771e-02, 3.42713343e-03,
       -3.55561101e-03, 9.34711192e-03, 5.63228503e-03, -2.06311187e-03,
       8.20405595e-03, -1.75619069e-02, -1.84673686e-02, -2.86647733e-02,
       -4.63327300e-03, -4.52186167e-03, -8.60415224e-04,
       -5.83980745e-03, -6.69988710e-03, 5.68121998e-03, -1.96900703e-02,
       -1.62095465e-02, -1.35011766e-02, 1.80267158e-03, 3.75242252e-03,
       2.74523813e-02, 2.54077781e-02, 6.44504651e-03, 1.30076404e-03,
       -3.13542504e-03, 4.33691172e-03, -2.23146775e-03, -7.19143404e-03,
       -1.84297767e-02, 2.26807930e-02, 2.80212946e-02, 1.60109494e-02,
       -6.08457625e-03, -2.85785068e-02, -1.30748758e-02,
       -9.74340737e-03, -1.67520698e-02, -7.11409468e-03, 1.46335447e-02,
       1.51341194e-02, -6.71951333e-04, -2.50518881e-02, -1.65142938e-02,
       -1.56437736e-02, -2.40347385e-02, -2.37278622e-02,
       -2.48508230e-02, 2.45449822e-02, 3.66065167e-02, 4.08171527e-02,
       4.03788500e-03, -1.81794874e-02, -1.42352926e-02, -2.42011957e-02,
       -2.73704343e-02, -2.21145302e-02, 7.56329671e-03, 3.01886871e-02,
       2.90594995e-02, 8.05673283e-03, -1.82899367e-02, 4.95423889e-03,
       4.02169209e-03, -7.43439654e-03, -1.41406264e-02, -8.90828390e-03,
       1.32691220e-03, 7.73294969e-03, -2.16368772e-03, -3.32815549e-03,
       9.15318634e-03, -1.10895140e-02, -1.90551933e-02, -3.68232913e-02,
       -2.32451186e-02, -2.61337794e-02, -2.02210620e-03, 1.53677622e-02,
       5.61379781e-03, 9.04297829e-03, 9.19893326e-04, -1.46934045e-02,
       -9.10414010e-03, 9.21692140e-03, 2.75328066e-02, 3.30710895e-02,
       2.87183914e-02, 1.17810303e-02, 9.87313967e-03, -7.26465182e-03,
       -2.27704328e-02, -3.37215327e-02, -1.45521136e-02,
       -1.09674120e-02, 2.16284320e-02, 2.24444401e-02, 8.77610501e-03,
       1.35301368e-03, -9.42003168e-03, -2.14585699e-02, -3.26908752e-02,
       -1.72566622e-02, -2.64283940e-02, 5.66312298e-03, 2.38846969e-02,
       1.80446561e-02, 2.15623137e-02, 5.51049272e-03, -1.79142840e-02,
       -1.88109428e-02, -7.43614417e-03, -1.15968091e-02, 7.16702361e-03,
       1.51835298e-02, 1.81392692e-02, 1.85098331e-02, 7.46749341e-03,
       -7.89185613e-03, -2.02590842e-02, -1.44020580e-02,
       -2.06260514e-02, 9.79071576e-03, 2.09023282e-02, 6.29950175e-03,
       2.00760420e-02, -1.87808799e-03, -2.23604515e-02, -2.07872987e-02,
       -9.35315713e-03, -1.73486359e-02, 7.85290822e-03, 1.30853429e-02,
       -8.62164237e-03, 4.20173863e-03, 3.12765827e-03, 9.69318149e-04,
       -6.67478750e-03, -1.28813367e-03, -1.31655345e-03,
       -1.44138190e-04, -1.47373630e-02, -1.86859090e-02,
       -1.26425792e-02, -5.80488518e-03, 1.01684453e-02, -2.56045051e-02,
       6.71981741e-03, 7.76761351e-03, -3.31993774e-03, -1.84848048e-02,
       -4.11215052e-03, 2.45738234e-02, 7.03267613e-03, -1.05691152e-02,
       -1.26237264e-02, -2.97201388e-02, -3.30731086e-02,
       -8.03758577e-03, -6.83049951e-03, -3.11878306e-04, 3.39788944e-03,
       1.63233709e-02, -9.20924998e-04, -2.65158731e-02, -2.76870374e-02,
       -2.81148497e-02, -3.82505869e-03, -2.98329140e-03,
       -1.57151427e-02, 2.99036590e-04, -1.11718103e-03, -1.97992125e-03,
       -2.15871129e-02, -7.51702627e-03, -2.31925840e-03, 1.89811774e-02,
       8.63348032e-05, 2.03906582e-03, 1.78924780e-02, -2.75824009e-03,
       -6.92770118e-03, -2.48580985e-02, -2.75221169e-02,
       -4.10898449e-03, 7.52514601e-03, -1.55659085e-02, 1.02839936e-02,
       2.04297854e-03, -8.00113752e-03, -1.67856440e-02, -2.00188290e-02,
       -1.77172907e-02, -2.97430647e-03, 2.52244081e-02, 1.78101584e-02,
       8.22869129e-03, 1.07282083e-02, -1.48296170e-02, -1.98540967e-02,
       -3.30341496e-02, -3.70628573e-02, -1.72042344e-02, 2.07708427e-03,
       -7.09614193e-04, 2.41831923e-03, 1.57920457e-02, 6.73571508e-03,
       2.48120353e-03, -1.35978535e-02, -2.01556347e-02, 3.65832774e-03,
       1.27517013e-02, -1.82615053e-02, -1.94238452e-03, 5.88173280e-03,
       -1.43817132e-02, -1.25417989e-02, -2.22842954e-02,
       -1.57540590e-02, 2.73600849e-03, 2.37966049e-02, 4.25933115e-03,
       8.97228625e-03, 2.45499238e-02, 9.24623664e-03, -7.03551387e-03,
       -2.61758752e-02, -2.68734433e-02, -9.87782050e-03,
       -1.23582824e-04, -9.41485539e-03, -2.21562805e-03,
       -1.52518100e-04, -1.46637298e-02, -2.68705077e-02,
       -3.13342437e-02, -1.92584470e-02, 5.64806163e-03, 3.10016125e-02,
       -8.33084225e-04, -4.76079877e-05, 1.14359315e-02, -6.82780053e-03,
       -2.22337954e-02, -2.47574244e-02, -1.89388804e-02, 2.04933481e-03,
       3.16150673e-02, 2.37241760e-02, 1.90531686e-02, 7.99106993e-03,
       -2.34700926e-02, -5.17693833e-02, -5.02774157e-02,
       -3.32641453e-02, -4.68375953e-03, 3.82816680e-02, 3.37411314e-02,
       -2.01962329e-03, 6.90214729e-05, -4.42994933e-04, -2.94393916e-02,
       -2.67664250e-02, -1.58468541e-02, 1.13248620e-02, 2.94232517e-02,
       3.02688754e-03, 3.58687411e-03, -7.15888804e-03, -1.19821625e-02,
       -5.11229187e-02, -3.20731699e-02, -2.10080445e-02, 3.59782181e-03,
       1.67849697e-02, 7.33694388e-03, 1.95010956e-02, -7.87387881e-03,
       -3.12087238e-02, -5.85957244e-02, -4.60120179e-02,
       -2.26697251e-02, -8.82915128e-03, 3.85706797e-02, 3.30476426e-02,
       2.88737770e-02, 8.48705601e-03, -1.39014714e-03, -2.46674120e-02,
       -3.44668329e-02, -6.21618703e-03, 1.14550092e-03, 2.37074997e-02,
       2.20385138e-02, 3.75982211e-03, -4.20678267e-03, -1.73670594e-02,
       -4.57770713e-02, -3.93979140e-02, -2.74698734e-02,
       -4.96394420e-03, 1.23355715e-02, 4.96425712e-03, 2.17410233e-02,
       3.14817368e-03, -3.94296646e-03, -2.63432935e-02, -3.40242460e-02,
       -1.54962884e-02, -7.96340127e-03, 1.36346770e-02, 1.71178225e-02,
       1.31814806e-02, 5.91874868e-03, 9.50970594e-03, -1.47252819e-02,
       -2.72764899e-02, -1.15854656e-02, -6.56416174e-03,
       -1.45186379e-03, 2.20126426e-03, 1.85218807e-02, 1.93072911e-02,
       2.03679316e-02, 4.87601198e-03, -1.09727317e-02, -8.45593587e-03,
       7.39040039e-03, 2.25024931e-02, 1.47936698e-02, 6.54569501e-03,
       -2.72616919e-04, -5.95680857e-03, -3.13786082e-02,
       -2.98430324e-02, -2.02288926e-02, -1.41291497e-02,
       -5.02552371e-03, -4.46035760e-03, 1.21713486e-02, 8.15112982e-03,
       1.76754128e-03, -1.18427705e-02, -1.94952600e-02, -1.50643494e-02,
       -7.97576457e-03, -9.79167060e-04, 5.01289079e-03, 3.15483473e-02,
       2.52218843e-02, 1.73719805e-02, -6.83145504e-03, -1.76855270e-02,
       -9.83930193e-03, 1.49332769e-02, 3.56247760e-02, 2.52788812e-02,
       2.20451807e-03, 1.48041304e-02, 1.76805146e-02, 8.22645612e-03,
       -1.38473813e-03, -9.98770632e-03, 2.20206901e-02, 2.35397015e-02,
       6.42441818e-03, 2.32107900e-02, 1.87349040e-02, 4.46213456e-03,
       -6.65974570e-03, -2.12634485e-02, -1.19413817e-02, 1.90252322e-03,
       1.09681515e-02, 4.62234905e-03, -2.58615334e-03, 7.59728765e-03,
       1.35657853e-02, -7.59990327e-03, -2.07261555e-02, -5.64902741e-03,
       6.24427572e-03, 1.63622538e-03, -2.22236235e-02, 1.45653617e-02,
       9.98332165e-03, 1.40410969e-02, 1.91916656e-02, 1.59285702e-02,
       7.42419763e-03, 1.93401705e-02, 2.51511484e-02, 2.39477213e-02,
       -2.35622493e-03, -2.83316290e-03, 5.46851987e-03, -1.09825041e-02,
       -8.20543803e-03, -1.85846929e-02, -2.14249231e-02,
       -9.72996745e-03, -1.27044059e-02, 5.89014555e-04, -3.85156204e-03,
       7.18281418e-03, -6.23771409e-03, 9.24053416e-03, 4.13138187e-03,
       9.98336636e-03, 1.41206188e-02, -1.62978843e-02, -1.75241008e-02,
       -1.12131499e-02, -3.17080203e-03, -9.89646092e-03,
       -1.57942213e-02, -2.05793809e-02, -2.08603255e-02,
       -1.58775300e-02, -3.73401120e-02, -7.93703459e-03, 7.13522546e-03,
       7.75908539e-03, 1.13706978e-03, -1.16218645e-02, -5.18468395e-03,
       -8.32188316e-03, -4.55574458e-03, -1.78803690e-02, 2.56862980e-03,
       1.59785748e-02, -2.60351668e-03, -1.87661708e-03, -5.27028413e-03,
       -1.29963830e-02, 2.07120758e-02, 8.44993442e-03, -5.32583054e-03,
       -1.87434517e-02, 5.63906739e-03, 5.38272830e-03, 1.05993133e-02,
       -1.19957654e-02, -1.03196045e-02, -1.22816805e-02,
       -1.30057931e-02, -2.48662941e-02, -1.34970350e-02, 4.46382444e-03,
       -6.01083098e-04, 2.12188456e-02, 5.73001569e-03, -6.01365278e-03,
       6.25464413e-03, -2.62000621e-03, -1.21922307e-02, 1.61134824e-02,
       4.98608034e-03, -9.04458854e-03, -3.65389092e-03, -1.91463064e-02,
       -2.21466329e-02, 8.98263697e-03, 1.01034371e-02, 1.18583618e-02,
       1.32421646e-02, 2.72230525e-03, -7.42789311e-03, -7.09493225e-03,
       -1.93325356e-02, -8.59764777e-03, -1.71762635e-03, 1.44955618e-02,
       1.89249925e-02, -6.29581977e-03, -1.19615197e-02, -9.81199369e-03,
       -6.09705923e-03, -1.61301233e-02, -1.82680003e-02, 3.24530527e-03,
       2.99822236e-03, 6.96632732e-03, -7.21804006e-03, -5.08596515e-03,
       -1.18087651e-02, -1.43740298e-02, -9.43712890e-03,
       -5.15043549e-03, -7.90212955e-03, 6.16613496e-03, -1.11081195e-03,
       1.55175682e-02, -2.98725837e-03, -2.05248408e-02, -2.65389960e-02,
       -2.85137035e-02, -2.02674568e-02, -5.08523034e-03, 2.18069535e-02,
       3.23508419e-02, 3.23737152e-02, -5.63658250e-04, -1.28237391e-02,
       -2.31903363e-02, -1.83832850e-02, -1.20273232e-02, 7.59531511e-03,
       2.77669299e-02, 3.93094197e-02, 5.33614308e-03, -3.00032133e-03,
       -2.00817510e-02, -3.65755074e-02, -1.21296560e-02,
       -1.67575516e-02, -1.41561050e-02, 1.06053166e-02, 3.90246802e-04,
       3.86227332e-02, -8.18310189e-04, -5.86459879e-03, -2.55125444e-02,
       -2.43074335e-02, -1.39004951e-02, -2.13645841e-03, 2.67886445e-02,
       3.83325778e-02, 6.38778228e-03, 1.35875419e-02, 3.51886638e-03,
       3.05459346e-03, -1.60921495e-02, 4.58608568e-03, 8.86920188e-03,
       -5.29821217e-03, -3.14406864e-03, -3.42148269e-04,
       -1.44342752e-03, -3.76241491e-03, -4.76357667e-03, 2.54772953e-04,
       -5.58192981e-03, 1.83431926e-04, -1.36031983e-02, 1.41376615e-04,
       2.16054209e-02, 1.66982878e-02, 1.93381170e-03, 8.28240707e-04,
       -1.33345760e-02, -2.82011548e-04, -9.47009679e-03,
       -2.99388867e-05, 9.36205871e-03, 2.59540100e-02, 6.39919797e-03,
       2.21625017e-03, 1.82727259e-03, -1.16351144e-02, -3.49631300e-03,
       -4.95421293e-04, 6.98733050e-03, 1.56010464e-02, 5.84214134e-03,
       -4.52827197e-03, -4.96364897e-03, 8.34037364e-03, 6.32433360e-03,
       -8.31780303e-03, -7.29528302e-03, -3.71376029e-03, 2.77332752e-03,
       -1.85848176e-02, -1.88696571e-02, -1.10002467e-02, 5.99353807e-03,
       -2.26140860e-03, 5.05766040e-03, -2.94682733e-03, -1.27411140e-02,
       -3.65981995e-03, 2.51821354e-02, 4.71244147e-03, 7.18099205e-03,
       2.45604850e-02, -6.80597639e-03, -9.53848474e-04, 2.93265237e-03,
       1.12372115e-02, 8.39293469e-03, 3.65650887e-03, 1.40503317e-03,
       3.19957011e-03, 2.42090598e-02, -2.97475141e-02, 1.16647491e-02,
       3.88351083e-03, -3.59580969e-03, 8.06959532e-03, -1.12191644e-02,
       -1.21879783e-02, 4.21584444e-03, 1.79554075e-02, 2.30973167e-03,
       2.15687547e-02, 7.97759742e-03, -1.01565728e-02, -2.22721810e-05,
       -1.21359201e-02, -9.14792158e-03, 3.21188662e-03, 7.10725039e-03,
       -1.73726454e-02, -9.25782230e-03, -5.46353729e-03,
       -1.21442284e-02, -1.44028077e-02, 1.77373950e-04, 3.07984813e-03,
       1.79403424e-02, 1.83087569e-02, -1.19711664e-02, 2.60787848e-02,
       1.25589147e-02, -3.39667196e-03, 1.61828045e-02, 7.97634386e-03,
       -8.59253295e-03, 3.76591482e-03, 1.11099565e-02, -1.60546955e-02,
       1.03608500e-02, 6.95028435e-03, 5.89141913e-04, 1.19303828e-02,
       4.81696660e-03, -9.86832287e-03, -1.34569537e-02, -1.70159840e-03,
       -5.08744363e-03, -1.28582884e-02, -1.07190404e-02,
       -1.09028770e-02, 2.27940874e-03, 1.97704211e-02, -1.29097030e-02,
       -1.21107018e-02, -2.25528190e-03, -3.90637480e-03, 6.79233111e-03,
       -2.12498177e-02, -9.27364919e-03, 1.70180462e-02, 1.44315083e-02,
       -1.22609446e-02, -1.20929256e-02, -7.43090315e-03,
       -1.23832049e-02, -1.51233422e-02, -1.21282870e-02,
       -6.58074918e-04, 1.82045139e-02, 4.50665224e-03, -5.56763820e-03,
       2.37854081e-03, -1.16320299e-02, 7.47222127e-03, -1.21716186e-02,
       -2.94011179e-02, -3.59602692e-03, 9.40732099e-03, -5.16969990e-03,
       -1.03694759e-02, -1.76131334e-02, 3.30747222e-03, 7.38239288e-03,
       1.09957047e-02, -4.66965651e-03, -3.10912449e-03, 3.81633989e-03,
       -1.37735214e-02, -3.34567949e-03, -1.59350317e-02, 7.77609320e-03,
       -5.23699122e-03, 4.09240462e-03, -6.06043590e-03, 1.72072474e-03,
       -2.31868098e-03, -9.08289477e-03, -3.89412814e-03,
       -1.43507589e-03, 3.44287697e-03, 5.98222110e-03, -6.33944350e-04,
       -1.85788479e-02, -3.52532184e-03, -8.79403111e-03,
       -1.07059525e-02, 1.99016114e-03, -1.00013443e-04, 1.55112445e-02,
       2.63072401e-02, 1.59331635e-02, -2.41094502e-03, 1.16138794e-02,
       -1.09661724e-02, -1.06368121e-02, 3.94569617e-03, -6.70276163e-03,
       -8.81479122e-03, -8.12986866e-03, 1.19986907e-02, 1.29555129e-02,
       3.13050188e-02, 2.37668469e-03, -1.63582694e-02, -3.24945361e-03,
       -1.85710180e-03, -1.09613314e-02, -6.18651323e-03, 1.23071680e-02,
       1.89338569e-02, 3.64094786e-02, 1.42413545e-02, -2.69993301e-02,
       -1.00393146e-02, -5.58647281e-03, 5.13929734e-03, 9.95253399e-03,
       4.78227157e-03, -3.16020887e-04, 1.53046167e-02, -1.71348546e-02,
       -2.71775369e-02, -1.60070676e-02, -6.85469666e-03,
       -1.27330900e-03, -5.45817195e-03, -2.18878733e-03,
       -1.52879267e-03, 2.63976194e-02, -9.35958291e-04, -8.63446202e-03,
       -2.29097670e-03, -4.48488444e-03, -7.43969204e-03, 6.32932084e-03,
       9.57762916e-03, 2.19904352e-02, 3.44790518e-02, 2.81009376e-02,
       8.69624969e-03, 1.94154140e-02, 7.16017501e-04, -1.85293909e-02,
       -2.83615123e-02, -9.08409804e-03, -3.50302365e-03, 1.92761756e-02,
       1.29693979e-02, -9.00458638e-03, -9.37529933e-03, -1.08641069e-02,
       -5.41827967e-03, 4.70182160e-03, -6.20697858e-03, 1.27366958e-02,
       3.18799876e-02, 9.57090221e-03, 3.39254038e-03, 8.31479114e-03,
       -1.42766302e-02, -1.71949677e-02, -3.71159762e-02,
       -1.65019445e-02, 1.28718937e-04, 2.97409836e-02, 1.99867133e-02,
       1.80525854e-02, 2.71337982e-02, 2.58233584e-02, -2.86270428e-04,
       -9.01421998e-03, -6.22483296e-03, -1.32573219e-02, 1.52509222e-02,
       9.83419362e-03, 4.20192257e-03, 1.24404058e-02, 3.02187889e-03,
       -1.35314148e-02, -1.40889203e-02, -6.35220855e-03, 2.30606459e-03,
       9.68301203e-03, -6.67609321e-03, 5.90021815e-03, 1.46460664e-02,
       1.66481466e-03, -2.19106767e-03, -2.00506561e-02, -4.76196269e-03,
       2.99664738e-04, 2.16318294e-02, 1.36710061e-02, -1.70055288e-03,
       -3.46588832e-03, 1.77540921e-03, 2.13118712e-03, -1.78872868e-02,
       -1.27645116e-02, 4.12675785e-04, 8.17316677e-03, -8.81056581e-03,
       1.07212900e-03, 2.67857667e-02, 1.95215549e-02, 1.35721946e-02,
       -3.78550170e-03, -2.28180233e-02, -1.42418258e-02,
       -1.30276952e-03, -1.92219131e-02, 9.64799616e-03, 3.13339941e-02,
       3.08861546e-02, 2.74315849e-02, 3.17199598e-03, -2.40890086e-02,
       -2.49818228e-02, -1.39466189e-02, -3.49174417e-03, 5.34023216e-04,
       -2.81272153e-03, 1.01137385e-02, 9.73701105e-03, -8.12560134e-03,
       -1.25416294e-02, -1.26952706e-02, -8.85128882e-03,
       -1.36470739e-02, 4.05382970e-03, 2.28389935e-03, 1.67882983e-02,
       1.31222326e-02, 7.03062571e-04, -5.52442158e-04, -1.82699878e-02,
       -1.52834030e-02, -1.59177929e-02, 1.12553220e-02, 1.19402092e-02,
       -9.73249506e-03, -1.14441151e-02, -1.28863857e-03,
       -8.81982036e-03, -1.68424298e-03, 9.05814115e-03, 1.35179162e-02,
       7.59881688e-03, -5.06896572e-03, -1.61978491e-02, -1.85967889e-02,
       -3.68868560e-03, -1.30889406e-02, -7.65694072e-03, 1.12769390e-02,
       9.41289961e-03, 7.47065526e-03, -1.05469795e-02, -1.38233025e-02,
       -1.78275835e-02, -2.58935406e-03, 8.21265916e-04, -7.24555831e-03,
       1.29868847e-03, -4.14553517e-03, -6.89382199e-03, -2.53559705e-02,
       -2.40965039e-02, -1.22924829e-02, 7.29627209e-04, 1.83754659e-03,
       -9.88109317e-03, 6.65351748e-03, -4.94514406e-03, 2.14964640e-03,
       6.56054029e-03, -2.89302872e-04, -2.91625969e-03, 1.51020871e-03,
       -1.18131274e-02, -5.69127081e-03, 8.84295162e-03, -7.15753250e-03,
       -2.74169771e-03, 3.38603836e-03, -7.45989522e-03, -1.44598568e-02,
       3.40522337e-03, -6.50540926e-03, 1.19479874e-03, 1.58813465e-02,
       -2.93726148e-03, -1.32317133e-02, -1.23990141e-02,
       -1.30037656e-02, 8.03031435e-04, 4.03530151e-03, 3.77692026e-03,
       -7.14654522e-03, -3.17638647e-03, -2.29822397e-02,
       -1.56574952e-03, -7.98496045e-03, -1.13192331e-02,
       -1.41794039e-02, -2.23325434e-04, -1.02875317e-02,
       -1.64400674e-02, 3.77810770e-03, -9.98107623e-03, -7.03520002e-03,
       -3.17308470e-03, -6.73342682e-03, -2.10457705e-02,
       -1.02584716e-02, -2.37592682e-03, 1.48829808e-02, 1.76428538e-02,
       -7.87556823e-03, -9.29732434e-03, 3.45982215e-03, -3.58306454e-03,
       -2.65275333e-02, -1.61710884e-02, -5.75642101e-03, 1.20480154e-02,
       9.98379290e-03, -1.32588055e-02, -6.01600809e-03, -3.37277027e-03,
       -3.10654566e-03, -5.37342392e-03, -6.71676546e-03,
       -1.12383021e-02, -1.49497166e-02, 2.67796498e-03, -5.17444173e-03,
       -1.25439139e-02, 1.14833526e-02, 2.64979503e-03, 4.21966612e-03,
       -1.74501375e-03, -1.41284410e-02, -1.26295304e-02, 1.33791962e-03,
       -1.51767805e-02, -7.04946229e-03, 1.44173866e-02, 3.34805087e-03,
       -1.82111710e-02, -2.14363597e-02, -1.38481921e-02, 3.84789752e-03,
       1.81723218e-02, -5.45958662e-03, 7.22110132e-03, 2.28980016e-02,
       4.26354026e-03, -1.59780830e-02, -2.12177355e-02, -7.52465846e-03,
       -3.32921324e-03, 1.65543333e-02, 1.25517985e-02, -1.51786013e-02,
       2.02419665e-02, 5.78975072e-04, -1.12149101e-02, -9.03835054e-03,
       -1.93820242e-02, -4.62670531e-03, 8.72622058e-03, -1.78766809e-02,
       -1.08066266e-02, 2.05357987e-02, 2.53439182e-04, -2.50788610e-02,
       -2.26731077e-02, -1.37309283e-02, -4.38729860e-03, 1.55106401e-02,
       -6.09505363e-03, 1.11830784e-02, 1.31841293e-02, 7.19934003e-04,
       -1.50224445e-02, -1.33158872e-02, -1.15540698e-02, 2.91200035e-04,
       1.39208222e-02, 3.42099974e-03, 1.31280385e-02, 1.21889682e-02,
       1.11713903e-02, -1.75452302e-03, -1.26252957e-02, 2.45184032e-03,
       7.04778638e-03, 1.56108746e-02, 1.07969728e-03, -1.30078224e-02,
       1.24703022e-02, 2.96990038e-04, -2.66309958e-02, -2.40374003e-02,
       -1.57400463e-02, -7.00031826e-03, 9.05467477e-03, -1.56198265e-02,
       -1.73793398e-02, -8.27589724e-03, -3.83413513e-03,
       -2.15921998e-02, -1.01483921e-02, -4.23408253e-03, 5.00463042e-03,
       1.63331516e-02, -5.74805588e-03, 1.39558995e-02, 2.23151259e-02,
       9.72165074e-03, -6.73614629e-03, -1.02570131e-02, -1.66745193e-03,
       1.91365648e-02, 2.56905537e-02, 1.09921219e-02, 4.51461831e-03,
       1.20998183e-02, 9.74788703e-03, -1.42005207e-02, -1.20159797e-02,
       1.02996118e-02, 1.75771080e-02, 1.56611744e-02, -1.09487101e-02,
       -1.45940650e-02, -2.53885519e-03, -9.13668700e-05,
       -2.71262899e-02, -1.33832972e-02, -1.32653927e-02, 6.26089377e-03,
       2.41702106e-02, 2.77604086e-05, -1.61601361e-02, -8.43559112e-03,
       -1.32219587e-03, -1.63340215e-02, -2.76478776e-03, 4.27240180e-03,
       -7.90102058e-04, 6.94081094e-03, -9.78284143e-03, -8.42841342e-03,
       -5.67577453e-03, -2.84679653e-03, -1.94367841e-02,
       -1.08119808e-02, 2.28914036e-03, 8.70401319e-03, 1.06317261e-02,
       -1.56497229e-02, -1.95689704e-02, -6.72849547e-03,
       -1.10809533e-02, -1.36974184e-02, -1.73549838e-02,
       -2.41856393e-03, -9.86061757e-04, 4.71888203e-03, -2.22788043e-02,
       -1.66500174e-03, -6.60192780e-03, -1.66593795e-03,
       -1.67999379e-02, -8.93759355e-03, 3.72015755e-03, 3.43425828e-03,
       7.99214933e-03, -4.34006192e-03, -3.56203550e-03, -1.04664536e-02,
       -1.98798049e-02, -1.36475721e-02, -1.42420335e-02, 1.55473072e-02,
       3.50355636e-03, 5.09440154e-03, -1.99615397e-02, -1.34305106e-02,
       -2.14105076e-03, -1.22361584e-02, -8.34374875e-03,
       -7.56724505e-03, -3.77022865e-04, 5.31328889e-03, 7.29091189e-05,
       -1.22367544e-02, -9.14512109e-03, -3.60528845e-03,
       -2.45382939e-03, 1.37317069e-02, 9.64931026e-03, -2.86264042e-03,
       -5.23639796e-03, -5.32386405e-03, -6.88714115e-03, 5.85428497e-04,
       -3.08546331e-03, -7.41866324e-03, -5.96670108e-03, 9.28144902e-03,
       2.39588916e-02, 2.73399265e-03, 9.35641350e-04, -1.48668075e-02,
       -2.73685367e-03, -2.97629787e-03, 1.11539541e-02, 5.39776962e-03,
       1.07140075e-02, 4.01749229e-03, -1.30061936e-02, -1.52816577e-02,
       -5.37597295e-03, -3.99463344e-03, -8.94600712e-03, 3.37346391e-05,
       3.26436688e-03, -9.77784023e-03, -1.00584351e-03, -5.37311798e-03,
       -2.52562854e-03, 1.08662657e-02, -6.66390080e-03, -1.28711143e-03,
       3.96762695e-03, -9.10406839e-03, 5.26832975e-03, 6.59510188e-05,
       -1.19539732e-02, -9.07958020e-04, 4.87235608e-03, -2.08926504e-03,
       -5.75482938e-03, 5.43297641e-03, -6.67286292e-03, -1.30001269e-02,
